SVM-light Version V6.02
2 # kernel type
3 # kernel parameter -d 
0.0001 # kernel parameter -g 
1 # kernel parameter -s 
1 # kernel parameter -r 
empty# kernel parameter -u 
7 # highest feature index 
1559 # number of training documents 
1521 # number of support vectors plus 1 
-0.95992754 # threshold b, each following line is a SV (starting with alpha*y)
-1 1:0.0098000001 2:0.4091 3:0.098700002 4:0.27270001 5:0.2262 6:0.029300001 7:0.25299999 #
6.1900000000000003907985046680551 1:0.0112 2:0 3:0.57630002 4:0 5:0.17919999 6:0.033 7:0 #
-1 1:0.0027000001 2:0 3:0.4754 4:0 5:0.14749999 6:0 7:0.0482 #
6.1900000000000003907985046680551 1:0.0232 2:0.91039997 3:0.0328 4:0.77609998 5:0.1285 6:0.073299997 7:0.78310001 #
-1 1:0.0348 2:0.96880001 3:0.1515 4:0.78130001 5:0.0199 6:0.065899998 7:0.56629997 #
-1 1:0.0049000001 2:0 3:0.40799999 4:0 5:0.2326 6:0.029300001 7:0.0361 #
-1 1:0.0063 2:0.91570002 3:0.074600004 4:0.61449999 5:0.79189998 6:0.0403 7:0.79519999 #
6.1900000000000003907985046680551 1:0.0504 2:0.98799998 3:0.1149 4:0.97589999 5:0.54570001 6:0.1172 7:0.44580001 #
-1 1:0.0054000001 2:0.1111 3:0.39649999 4:0 5:0.1077 6:0.022 7:0.0482 #
-1 1:0.1955 2:1 3:0.88080001 4:1 5:0.061500002 6:0.25639999 7:0 #
6.1900000000000003907985046680551 1:0.00039999999 2:0 3:0.1573 4:0 5:0.1937 6:0.0147 7:0.0964 #
-1 1:0.00089999998 2:0.044799998 3:0.0286 4:0.0149 5:0.38550001 6:0.018300001 7:0.79519999 #
6.1900000000000003907985046680551 1:0.047800001 2:0.94120002 3:0.52039999 4:0.90200001 5:0.2534 6:0.098899998 7:0.060199998 #
6.1900000000000003907985046680551 1:0 2:0 3:0.054099999 4:0 5:0.1683 6:0.022 7:0.2289 #
-1 1:0.22679999 2:0.9375 3:0.72719997 4:0.9375 5:0.1538 6:0.2454 7:0 #
-1 1:0 2:0 3:0.1339 4:0 5:0.1095 6:0.022 7:0.0964 #
6.1900000000000003907985046680551 1:0.018300001 2:1 3:0.51209998 4:1 5:0.55290002 6:0.047600001 7:0 #
-1 1:0.1415 2:1 3:0.64279997 4:1 5:0.2244 6:0.2088 7:0 #
-1 1:0.0049000001 2:0 3:0.1234 4:0.1538 5:0.64160001 6:0.025599999 7:0.1205 #
-1 1:0 2:0.1613 3:0.1303 4:0.032299999 5:0.46610001 6:0.022 7:0.37349999 #
-1 1:0.1219 2:1 3:0.79650003 4:1 5:0.065200001 6:0.1648 7:0 #
6.1900000000000003907985046680551 1:0.0044999998 2:0.083300002 3:0.1353 4:0.083300002 5:0.50410002 6:0.022 7:0.28920001 #
-1 1:0.00039999999 2:0 3:0.090700001 4:0.0964 5:0.1529 6:0.022 7:0.67470002 #
6.1900000000000003907985046680551 1:0.1513 2:0.97670001 3:0.2324 4:0.97670001 5:0.086000003 6:0.19410001 7:0.0361 #
-1 1:0.1179 2:1 3:0.7475 4:1 5:0.2561 6:0.1758 7:0 #
-1 1:0.00089999998 2:0.1094 3:0.1039 4:0.25 5:0.4181 6:0.029300001 7:0.69880003 #
-1 1:0.00089999998 2:0 3:0.098300003 4:0 5:0.2335 6:0.018300001 7:0.0361 #
-1 1:0.1058 2:1 3:0.699 4:1 5:0.1719 6:0.1612 7:0 #
-1 1:0.0031000001 2:0 3:0.1055 4:0 5:0.18099999 6:0.029300001 7:0.084299996 #
-1 1:0.1147 2:0.98439997 3:0.73799998 4:0.98439997 5:0.2561 6:0.1758 7:0.012 #
-1 1:0.0013 2:0 3:0.054299999 4:0 5:0.45879999 6:0.011 7:0.51810002 #
-1 1:0.098700002 2:1 3:0.67180002 4:1 5:0.034400001 6:0.1429 7:0 #
6.1900000000000003907985046680551 1:0.0076000001 2:0.078400001 3:0.1476 4:0.058800001 5:0.31400001 6:0.022 7:0.4337 #
-1 1:0.0018 2:0 3:0.077699997 4:0 5:0.52399999 6:0.018300001 7:0.3976 #
-1 1:0.091499999 2:1 3:0.64789999 4:1 5:0.032600001 6:0.12819999 7:0 #
-1 1:0.0035999999 2:0 3:0.096000001 4:0 5:0.1937 6:0.022 7:0.1446 #
-1 1:0.1062 2:1 3:0.69950002 4:1 5:0.28240001 6:0.12819999 7:0 #
-1 1:0.0013 2:0.031300001 3:0.1103 4:0 5:0.26969999 6:0.018300001 7:0.67470002 #
-1 1:0.086599998 2:1 3:0.65450001 4:1 5:0.1213 6:0.1392 7:0 #
-1 1:0.0121 2:0.030300001 3:0.1876 4:0.030300001 5:0.66970003 6:0.025599999 7:0.084299996 #
-1 1:0.037099998 2:1 3:0.6426 4:1 5:0.039799999 6:0.073299997 7:0 #
-1 1:0.0054000001 2:0.0361 3:0.068599999 4:0.34940001 5:0.248 6:0.029300001 7:0.86750001 #
-1 1:0.074600004 2:0.98040003 3:0.68769997 4:1 5:0.27959999 6:0.1355 7:0 #
-1 1:0 2:0 3:0.1283 4:0 5:0.4896 6:0.011 7:0.1205 #
-1 1:0.15539999 2:0.95520002 3:0.1666 4:0.97009999 5:0.1928 6:0.1832 7:0.1205 #
-1 1:0.00089999998 2:0.021299999 3:0.1215 4:0 5:0.28690001 6:0.018300001 7:0.53009999 #
-1 1:0.056699999 2:0.9677 3:0.75410002 4:0.9677 5:0.2615 6:0.1319 7:0 #
-1 1:0.0054000001 2:0.083300002 3:0.156 4:0.083300002 5:0.44069999 6:0.025599999 7:0.32530001 #
-1 1:0.0035999999 2:0 3:0.1156 4:0 5:0.56379998 6:0.0147 7:0.56629997 #
-1 1:0.071400002 2:1 3:0.64499998 4:1 5:0.0995 6:0.1245 7:0 #
-1 1:0.0018 2:0 3:0.1097 4:0 5:0.14300001 6:0.018300001 7:0.060199998 #
-1 1:0.15710001 2:0.9375 3:0.74949998 4:0.9375 5:0.1611 6:0.1832 7:0 #
6.1900000000000003907985046680551 1:0.0022 2:0 3:0.1455 4:0 5:0.1575 6:0.022 7:0.1446 #
6.1900000000000003907985046680551 1:0.029899999 2:0.93980002 3:0.0999 4:0.8434 5:0.46970001 6:0.054900002 7:0.53009999 #
-1 1:0.12989999 2:0.91670001 3:0.61110002 4:0.91670001 5:0.096799999 6:0.16850001 7:0 #
-1 1:0 2:0.759 3:0.0614 4:0.1566 5:0.9249 6:0.022 7:0.92769998 #
-1 1:0.1098 2:1 3:0.4576 4:1 5:0.088699996 6:0.1795 7:0 #
-1 1:0.0076000001 2:0 3:0.26069999 4:0 5:0.1575 6:0.033 7:0.0361 #
6.1900000000000003907985046680551 1:0.0031000001 2:0.041700002 3:0.1508 4:0 5:0.1692 6:0.022 7:0.2651 #
-1 1:0.0902 2:0.97589999 3:0.26429999 4:0.98799998 5:0.6778 6:0.1355 7:0.0241 #
-1 1:0.0066999998 2:0 3:0.26230001 4:0 5:0.1086 6:0.022 7:0.084299996 #
-1 1:0.1116 2:0.9756 3:0.63410002 4:0.9756 5:0.1665 6:0.1538 7:0.012 #
-1 1:0.00089999998 2:0.012 3:0.079300001 4:0.16869999 5:0.77469999 6:0.025599999 7:0.78310001 #
-1 1:0.040199999 2:1 3:0.64910001 4:1 5:0.093199998 6:0.1062 7:0.012 #
-1 1:0.0022 2:0 3:0.17569999 4:0 5:0.1357 6:0.018300001 7:0.0482 #
-1 1:0.075400002 2:0.85540003 3:0.19949999 4:0.96390003 5:0.65700001 6:0.1172 7:0.072300002 #
-1 1:0.0022 2:0 3:0.27900001 4:0 5:0.15109999 6:0.025599999 7:0.0361 #
-1 1:0.079000004 2:1 3:0.56879997 4:1 5:0.2814 6:0.1136 7:0 #
-1 1:0 2:0.0964 3:0.041700002 4:0.1084 5:0.74119997 6:0.022 7:0.97589999 #
-1 1:0.00039999999 2:0.047600001 3:0.1187 4:0.16670001 5:0.35839999 6:0.029300001 7:0.4337 #
-1 1:0.043699998 2:1 3:0.58389997 4:0.86360002 5:0.036200002 6:0.065899998 7:0 #
-1 1:0.0013 2:0 3:0.1172 4:0 5:0.133 6:0.018300001 7:0.072300002 #
-1 1:0.064300001 2:1 3:0.63029999 4:1 5:0.3484 6:0.095200002 7:0 #
-1 1:0.0054000001 2:0 3:0.070600003 4:0.044799998 5:0.4434 6:0.022 7:0.61449999 #
-1 1:0.073200002 2:1 3:0.51520002 4:1 5:0.1249 6:0.1136 7:0 #
-1 1:0.0013 2:0 3:0.1193 4:0 5:0.1674 6:0.0147 7:0.084299996 #
-1 1:0.053100001 2:1 3:0.62519997 4:1 5:0.2353 6:0.095200002 7:0 #
-1 1:0.0013 2:0.1446 3:0.098899998 4:0.012 5:0.78460002 6:0.0147 7:0.56629997 #
-1 1:0.0049000001 2:0 3:0.090800002 4:0 5:0.3321 6:0.018300001 7:0.1928 #
-1 1:0.075400002 2:1 3:0.51120001 4:1 5:0.1303 6:0.1099 7:0 #
-1 1:0.0013 2:0 3:0.23360001 4:0 5:0.1131 6:0.022 7:0.1084 #
-1 1:0.052700002 2:1 3:0.5219 4:1 5:0.23800001 6:0.073299997 7:0 #
-1 1:0.0040000002 2:0.1807 3:0.13150001 4:0.0482 5:0.86059999 6:0.018300001 7:0.2651 #
-1 1:0.0143 2:1 3:0.49610001 4:1 5:0.0118 6:0.054900002 7:0.012 #
6.1900000000000003907985046680551 1:0.00039999999 2:0 3:0.29539999 4:0.2 5:0.56470001 6:0.029300001 7:0.0482 #
-1 1:0.0013 2:0 3:0.2023 4:0 5:0.1312 6:0.018300001 7:0.1205 #
6.1900000000000003907985046680551 1:0.0057999999 2:0.69880003 3:0.0801 4:0.62650001 5:0.28780001 6:0.0403 7:0.77109998 #
-1 1:0.054499999 2:0.65060002 3:0.2366 4:0.93980002 5:0.075999998 6:0.1136 7:0.0361 #
-1 1:0 2:0.40959999 3:0.0197 4:0.1807 5:0.81 6:0.025599999 7:1 #
-1 1:0.023700001 2:1 3:0.45750001 4:1 5:0.068800002 6:0.069600001 7:0.012 #
6.1900000000000003907985046680551 1:0.00089999998 2:0.1154 3:0.085500002 4:0.0385 5:0.28960001 6:0.018300001 7:0.31330001 #
-1 1:0.0138 2:1 3:0.1972 4:1 5:0.1149 6:0.036600001 7:0.084299996 #
-1 1:0.1076 2:0.97619998 3:0.50340003 4:0.97619998 5:0.24429999 6:0.1355 7:0.0241 #
6.1900000000000003907985046680551 1:0.00089999998 2:0 3:0.28560001 4:0 5:0.2299 6:0.022 7:0.0482 #
-1 1:0.0125 2:0.0149 3:0.078000002 4:0.029899999 5:0.4434 6:0.022 7:0.56629997 #
-1 1:0.00039999999 2:0.19400001 3:0.064999998 4:0.2388 5:0.44890001 6:0.029300001 7:0.6627 #
-1 1:0 2:0 3:0.1159 4:0 5:0.17919999 6:0.018300001 7:0.20479999 #
-1 1:0.1022 2:0.91430002 3:0.63300002 4:1 5:0.26789999 6:0.1245 7:0 #
-1 1:0.0035999999 2:0 3:0.126 4:0 5:0.37920001 6:0.022 7:0.40959999 #
-1 1:0.087899998 2:0.94440001 3:0.56709999 4:1 5:0.1973 6:0.1355 7:0 #
-1 1:0.00039999999 2:0 3:0.29640001 4:0 5:0.17829999 6:0.018300001 7:0.1084 #
-1 1:0.0013 2:0.92769998 3:0.1142 4:0.80720001 5:0.73570001 6:0.0513 7:0.4578 #
-1 1:0.00039999999 2:0 3:0.1635 4:0 5:0.14480001 6:0.011 7:0.1446 #
-1 1:0.090599999 2:0.96149999 3:0.53759998 4:0.96149999 5:0.114 6:0.12819999 7:0.012 #
-1 1:0 2:0.0196 3:0.074199997 4:0.078400001 5:0.45969999 6:0.022 7:0.61449999 #
-1 1:0.0254 2:0.88889998 3:0.727 4:0.88889998 5:0.090499997 6:0.036600001 7:0 #
-1 1:0.0013 2:0.072300002 3:0.068999998 4:0.21690001 5:0.1946 6:0.025599999 7:0.85540003 #
-1 1:0.046 2:1 3:0.50550002 4:1 5:0.1303 6:0.080600001 7:0 #
-1 1:0.0027000001 2:0 3:0.2062 4:0 5:0.27869999 6:0.018300001 7:0.060199998 #
-1 1:0.0035999999 2:0.84380001 3:0.071800001 4:0.46880001 5:0.078699999 6:0.036600001 7:0.77109998 #
-1 1:0.0035999999 2:0 3:0.12800001 4:0 5:0.30050001 6:0.018300001 7:0.072300002 #
-1 1:0.019200001 2:0.93940002 3:0.1226 4:0.93940002 5:0.27419999 6:0.084200002 7:0.3012 #
-1 1:0 2:0 3:0.093699999 4:0.093800001 5:0.4824 6:0.025599999 7:0.7349 #
6.1900000000000003907985046680551 1:0.076800004 2:0.92159998 3:0.57740003 4:0.96079999 5:0.14929999 6:0.1209 7:0.0241 #
-1 1:0.059799999 2:0.93940002 3:0.63529998 4:0.93940002 5:0.1285 6:0.098899998 7:0 #
-1 1:0.0040000002 2:0 3:0.25260001 4:0 5:0.17919999 6:0.029300001 7:0.1205 #
-1 1:0.0348 2:0.96390003 3:0.1578 4:0.89160001 5:0.66610003 6:0.065899998 7:0.1566 #
6.1900000000000003907985046680551 1:0.1138 2:1 3:0.55970001 4:1 5:0.50410002 6:0.15019999 7:0 #
-1 1:0.0018 2:0.048799999 3:0.081299998 4:0.073200002 5:0.1719 6:0.025599999 7:0.49399999 #
-1 1:0.017899999 2:0.5625 3:0.2965 4:0.75 5:0.21269999 6:0.054900002 7:0.0241 #
6.1900000000000003907985046680551 1:0.0040000002 2:0.6875 3:0.1779 4:0.375 5:0.1213 6:0.044 7:0.084299996 #
-1 1:0.059799999 2:0.96079999 3:0.59100002 4:0.92159998 5:0.2235 6:0.1062 7:0.012 #
-1 1:0.0018 2:0.33329999 3:0.1875 4:0 5:0.1548 6:0.033 7:0.084299996 #
-1 1:0.1054 2:0.95349997 3:0.46779999 4:0.95349997 5:0.30770001 6:0.1612 7:0 #
-1 1:0.0022 2:0 3:0.1158 4:0 5:0.14569999 6:0.0147 7:0.13249999 #
-1 1:0.046399999 2:0.91670001 3:0.62370002 4:1 5:0.1701 6:0.076899998 7:0 #
-1 1:0.0027000001 2:0 3:0.26120001 4:0 5:0.2579 6:0.022 7:0.084299996 #
-1 1:0.028999999 2:1 3:0.48699999 4:1 5:0.1955 6:0.080600001 7:0.0361 #
-1 1:0.0035999999 2:0 3:0.1251 4:0 5:0.2588 6:0.018300001 7:0.0964 #
-1 1:0.044599999 2:0.93330002 3:0.6692 4:0.86669999 5:0.21359999 6:0.076899998 7:0 #
-1 1:0.079499997 2:0.95829999 3:0.50300002 4:0.95829999 5:0.20900001 6:0.1099 7:0.012 #
6.1900000000000003907985046680551 1:0.0049000001 2:0.1205 3:0.0986 4:0.3012 5:0.3204 6:0.029300001 7:0.5783 #
-1 1:0.0080000004 2:0.029899999 3:0.067900002 4:0.059700001 5:0.4443 6:0.022 7:0.63859999 #
-1 1:0.064300001 2:0.9429 3:0.49329999 4:0.97140002 5:0.066100001 6:0.1062 7:0.012 #
-1 1:0.0044999998 2:0 3:0.0801 4:0 5:0.29679999 6:0.0147 7:0.28920001 #
-1 1:0.0634 2:0.92309999 3:0.56199998 4:1 5:0.20720001 6:0.1099 7:0 #
-1 1:0.00039999999 2:0 3:0.13609999 4:0 5:0.15019999 6:0.011 7:0.1446 #
-1 1:0.051800001 2:0.95450002 3:0.51370001 4:1 5:0.1946 6:0.095200002 7:0.0241 #
-1 1:0.0031000001 2:0.2 3:0.3251 4:0 5:0.43889999 6:0.022 7:0.0361 #
-1 1:0.0429 2:1 3:0.4201 4:0.97219998 5:0.1873 6:0.1062 7:0.0482 #
-1 1:0.068800002 2:0.97219998 3:0.3556 4:0.97219998 5:0.087800004 6:0.1136 7:0.0241 #
-1 1:0.0035999999 2:0 3:0.20299999 4:0 5:0.34299999 6:0.0147 7:0.1807 #
6.1900000000000003907985046680551 1:0.043299999 2:0.75 3:0.59399998 4:1 5:0.0471 6:0.065899998 7:0 #
-1 1:0.056299999 2:0.94739997 3:0.50870001 4:0.94739997 5:0.14569999 6:0.1062 7:0.012 #
-1 1:0.0035999999 2:0 3:0.33590001 4:0.1111 5:0.1538 6:0.025599999 7:0.0964 #
-1 1:0.0103 2:0.95179999 3:0.1268 4:0.8193 5:0.64429998 6:0.0513 7:0.31330001 #
-1 1:0.0040000002 2:0 3:0.1138 4:0 5:0.18189999 6:0.025599999 7:0.1807 #
-1 1:0.062100001 2:0.91670001 3:0.51950002 4:0.95829999 5:0.36829999 6:0.087899998 7:0.012 #
6.1900000000000003907985046680551 1:0 2:0 3:0.2208 4:0 5:0.17739999 6:0.018300001 7:0.072300002 #
-1 1:0.0035999999 2:0.1111 3:0.3888 4:0.1111 5:0.1222 6:0.011 7:0.072300002 #
-1 1:0.0049000001 2:0.87949997 3:0.1078 4:0.72289997 5:0.54750001 6:0.044 7:0.50599998 #
6.1900000000000003907985046680551 1:0.0040000002 2:0 3:0.248 4:0 5:0.2181 6:0.025599999 7:0.0482 #
-1 1:0.0022 2:0 3:0.1719 4:0 5:0.20630001 6:0.018300001 7:0.1205 #
-1 1:0.00089999998 2:0.54220003 3:0.055599999 4:0.1205 5:0.7719 6:0.022 7:0.93980002 #
-1 1:0.0254 2:0.89999998 3:0.46939999 4:0.89999998 5:0.027100001 6:0.069600001 7:0.012 #
6.1900000000000003907985046680551 1:0.0125 2:0.1538 3:0.085000001 4:0.30770001 5:0.5783 6:0.029300001 7:0.1566 #
-1 1:0.00039999999 2:0.060199998 3:0.071400002 4:0.28920001 5:0.94840002 6:0.029300001 7:0.8193 #
6.1900000000000003907985046680551 1:0.1004 2:0.875 3:0.4366 4:0.9375 5:0.1294 6:0.1172 7:0 #
-1 1:0.0147 2:0.88889998 3:0.39590001 4:1 5:0.027100001 6:0.0513 7:0.012 #
6.1900000000000003907985046680551 1:0.0054000001 2:0.36140001 3:0.071099997 4:0.4337 5:0.29049999 6:0.033 7:0.83130002 #
-1 1:0.0035999999 2:0.093800001 3:0.1186 4:0.0469 5:0.2579 6:0.022 7:0.65060002 #
-1 1:0.0165 2:1 3:0.3443 4:1 5:0.162 6:0.073299997 7:0.0241 #
-1 1:0.00039999999 2:0 3:0.1077 4:0 5:0.4253 6:0.011 7:0.1566 #
-1 1:0.0125 2:0.90240002 3:0.14380001 4:0.85369998 5:0.022600001 6:0.058600001 7:0.36140001 #
-1 1:0.0057999999 2:0.0156 3:0.15979999 4:0.031300001 5:0.4833 6:0.022 7:0.50599998 #
6.1900000000000003907985046680551 1:0.031300001 2:0.96969998 3:0.2418 4:0.9091 5:0.093199998 6:0.080600001 7:0.0361 #
-1 1:0.0049000001 2:1 3:0.4463 4:0.83329999 5:0.058800001 6:0.0513 7:0.0361 #
-1 1:0.00039999999 2:0 3:0.13349999 4:0 5:0.1964 6:0.0147 7:0.084299996 #
-1 1:0.0491 2:0.97219998 3:0.3926 4:0.94440001 5:0.24519999 6:0.098899998 7:0.060199998 #
-1 1:0.0035999999 2:0 3:0.21510001 4:0 5:0.2362 6:0.0147 7:0.1084 #
-1 1:0.0027000001 2:0.93620002 3:0.15279999 4:0.085100003 5:0.2308 6:0.022 7:0.38550001 #
6.1900000000000003907985046680551 1:0.0080000004 2:0.49399999 3:0.15180001 4:0.86750001 5:0.29049999 6:0.0623 7:0.16869999 #
-1 1:0.020099999 2:0.66670001 3:0.58380002 4:1 5:0.085100003 6:0.058600001 7:0 #
6.1900000000000003907985046680551 1:0.0040000002 2:0.88889998 3:0.1363 4:0.1944 5:0.15019999 6:0.025599999 7:0.37349999 #
-1 1:0.055399999 2:0.92309999 3:0.35589999 4:0.96149999 5:0.1068 6:0.1099 7:0.0241 #
-1 1:0.0013 2:0.1045 3:0 4:0.22390001 5:0.36649999 6:0.029300001 7:0.80720001 #
-1 1:0.038800001 2:0.89999998 3:0.48429999 4:1 5:0.1855 6:0.069600001 7:0.0241 #
-1 1:0.066500001 2:0.89359999 3:0.47639999 4:0.93620002 5:0.1656 6:0.087899998 7:0.012 #
-1 1:0.00039999999 2:0.074600004 3:0.0583 4:0.17910001 5:0.34029999 6:0.025599999 7:0.7349 #
-1 1:0.078100003 2:0.95310003 3:0.3804 4:0.95310003 5:0.1674 6:0.1136 7:0.072300002 #
-1 1:0.00039999999 2:0 3:0.121 4:0 5:0.3955 6:0.0147 7:0.38550001 #
-1 1:0.042399999 2:0.83329999 3:0.60009998 4:0.91670001 5:0.2353 6:0.069600001 7:0 #
6.1900000000000003907985046680551 1:0.0071 2:0.122 3:0.1109 4:0.1463 5:0.28510001 6:0.029300001 7:0.4578 #
-1 1:0.00039999999 2:0.0286 3:0.077100001 4:0 5:0.24160001 6:0.018300001 7:0.3976 #
6.1900000000000003907985046680551 1:0.0085000005 2:0.097599998 3:0.1912 4:0 5:0.1864 6:0.022 7:0.241 #
-1 1:0.031300001 2:0.66670001 3:0.59140003 4:0.83329999 5:0.26699999 6:0.065899998 7:0 #
-1 1:0.0121 2:0.1928 3:0.039700001 4:0.48190001 5:0.77560002 6:0.036600001 7:0.98799998 #
-1 1:0.0031000001 2:1 3:0.477 4:0.66670001 5:0.032600001 6:0.036600001 7:0.0241 #
-1 1:0.0093999999 2:0 3:0.294 4:0.125 5:0.2217 6:0.029300001 7:0.084299996 #
-1 1:0.082599998 2:0.92540002 3:0.35710001 4:0.95520002 5:0.20999999 6:0.15019999 7:0.0482 #
-1 1:0.0054000001 2:0.375 3:0.1664 4:0.375 5:0.26789999 6:0.029300001 7:0.084299996 #
6.1900000000000003907985046680551 1:0.018300001 2:0.91670001 3:0.4549 4:0.91670001 5:0.066100001 6:0.047600001 7:0.0241 #
-1 1:0.0272 2:1 3:0.4332 4:0.88889998 5:0.17829999 6:0.047600001 7:0 #
-1 1:0.0013 2:0.1084 3:0.0999 4:0 5:0.2489 6:0.011 7:0.54220003 #
6.1900000000000003907985046680551 1:0.0491 2:0.93550003 3:0.48050001 4:0.93550003 5:0.44890001 6:0.084200002 7:0.0241 #
-1 1:0.081299998 2:0.92680001 3:0.3951 4:0.95120001 5:0.29319999 6:0.1209 7:0.0241 #
-1 1:0.0040000002 2:0 3:0.1596 4:0 5:0.38550001 6:0.025599999 7:0.2651 #
-1 1:0.069200002 2:0.95240003 3:0.2897 4:0.95240003 5:0.1321 6:0.1245 7:0.0482 #
-1 1:0.0066999998 2:0.083300002 3:0.2476 4:0.083300002 5:0.064300001 6:0.018300001 7:0.0482 #
-1 1:0.024599999 2:0.6875 3:0.4711 4:0.75 5:0.043400001 6:0.065899998 7:0.012 #
-1 1:0.00039999999 2:0.0233 3:0.088699996 4:0.0233 5:0.38100001 6:0.022 7:0.4337 #
-1 1:0.053599998 2:0.81819999 3:0.54589999 4:0.95450002 5:0.28690001 6:0.084200002 7:0.012 #
-1 1:0.00039999999 2:0.0286 3:0.1246 4:0.0286 5:0.37099999 6:0.018300001 7:0.36140001 #
-1 1:0.086199999 2:0.92860001 3:0.42300001 4:0.92860001 5:0.20810001 6:0.1136 7:0.0361 #
-1 1:0.0031000001 2:0.51810002 3:0.0526 4:0.6024 5:0.1321 6:0.0403 7:0.95179999 #
-1 1:0.0022 2:0.096799999 3:0.214 4:0.096799999 5:0.6081 6:0.025599999 7:0.21690001 #
-1 1:0.052700002 2:0.84850001 3:0.44749999 4:1 5:0.17829999 6:0.1062 7:0.0361 #
-1 1:0.0054000001 2:0 3:0.1513 4:0 5:0.31220001 6:0.025599999 7:0.20479999 #
-1 1:0.023700001 2:1 3:0.4287 4:0.75 5:0.054299999 6:0.0513 7:0.012 #
-1 1:0.0013 2:0.0241 3:0.091200002 4:0.1446 5:0.28600001 6:0.022 7:0.65060002 #
6.1900000000000003907985046680551 1:0.073200002 2:0.88239998 3:0.56699997 4:0.94120002 5:0.1222 6:0.1136 7:0.0361 #
-1 1:0.0469 2:0.89999998 3:0.50980002 4:0.89999998 5:0.36469999 6:0.080600001 7:0.012 #
-1 1:0.0018 2:0.030300001 3:0.14579999 4:0 5:0.2326 6:0.018300001 7:0.3012 #
-1 1:0.031300001 2:0.95740002 3:0.3865 4:0.95740002 5:0.2588 6:0.091600001 7:0.060199998 #
6.1900000000000003907985046680551 1:0.0429 2:0.86750001 3:0.20550001 4:0.90359998 5:0.38999999 6:0.073299997 7:0.0482 #
-1 1:0.056699999 2:0.9375 3:0.39950001 4:0.9375 5:0.29319999 6:0.091600001 7:0.012 #
-1 1:0.0022 2:0 3:0.1429 4:0 5:0.26429999 6:0.011 7:0.1084 #
-1 1:0.032099999 2:0.97869998 3:0.4066 4:0.89359999 5:0.2525 6:0.076899998 7:0.0482 #
6.1900000000000003907985046680551 1:0 2:0.0625 3:0.1269 4:0.0625 5:0.2615 6:0.025599999 7:0.16869999 #
-1 1:0.0040000002 2:0 3:0.14309999 4:0 5:0.26789999 6:0.018300001 7:0.13249999 #
-1 1:0.057999998 2:0.94029999 3:0.3572 4:0.91039997 5:0.2054 6:0.12819999 7:0.0361 #
-1 1:0.00039999999 2:0 3:0.1507 4:0 5:0.27959999 6:0.011 7:0.1807 #
-1 1:0.056699999 2:0.91670001 3:0.41319999 4:0.91670001 5:0.1864 6:0.091600001 7:0.0241 #
-1 1:0.0138 2:0.1 3:0.39070001 4:0.30000001 5:0.1312 6:0.0403 7:0.0361 #
6.1900000000000003907985046680551 1:0.0638 2:0.8434 3:0.2005 4:0.92769998 5:0.4271 6:0.091600001 7:0.060199998 #
-1 1:0.072800003 2:0.8193 3:0.28979999 4:0.95179999 5:0.82709998 6:0.1136 7:0.012 #
-1 1:0 2:0.13330001 3:0.1355 4:0 5:0.1321 6:0.0147 7:0.1566 #
-1 1:0.023700001 2:0.625 3:0.1072 4:0.75 5:0.1348 6:0.047600001 7:0.072300002 #
6.1900000000000003907985046680551 1:0.0022 2:0.5 3:0.1338 4:0.5 5:0.093199998 6:0.0403 7:0.0361 #
-1 1:0.021 2:0.88889998 3:0.52139997 4:0.88889998 5:0.1647 6:0.054900002 7:0.0241 #
-1 1:0.0125 2:0.66670001 3:0.63349998 4:0.55559999 5:0.2226 6:0.022 7:0.012 #
-1 1:0.0040000002 2:0.084299996 3:0.066699997 4:0.46990001 5:0.78369999 6:0.036600001 7:0.89160001 #
-1 1:0.0286 2:1 3:0.3996 4:0.83329999 5:0.1068 6:0.069600001 7:0.0482 #
-1 1:0.0098000001 2:0.16670001 3:0.31619999 4:0.16670001 5:0.1285 6:0.036600001 7:0.060199998 #
-1 1:0.097800002 2:0.88059998 3:0.1899 4:0.94029999 5:0.29319999 6:0.1392 7:0.0964 #
6.1900000000000003907985046680551 1:0.00089999998 2:0.090899996 3:0.124 4:0.090899996 5:0.1276 6:0.0147 7:0.1205 #
-1 1:0.00089999998 2:0 3:0.14659999 4:0 5:0.27779999 6:0.0147 7:0.2771 #
-1 1:0.022299999 2:0.95829999 3:0.30419999 4:0.91670001 5:0.059700001 6:0.080600001 7:0.0482 #
-1 1:0.0098000001 2:0.33329999 3:0.50910002 4:0.33329999 5:0.1204 6:0.033 7:0.012 #
-1 1:0 2:0.6627 3:0.041700002 4:0.2289 5:0.78009999 6:0.025599999 7:0.96390003 #
6.1900000000000003907985046680551 1:0.0116 2:0.1111 3:0.39480001 4:0.1111 5:0.20720001 6:0.025599999 7:0.0241 #
-1 1:0.0076000001 2:0.0625 3:0.2714 4:0.25 5:0.1213 6:0.033 7:0.1205 #
-1 1:0.0429 2:0.95120001 3:0.2139 4:0.90240002 5:0.048 6:0.080600001 7:0.1446 #
-1 1:0.00089999998 2:0.0469 3:0.088600002 4:0.21879999 5:0.46520001 6:0.029300001 7:0.74699998 #
-1 1:0.0634 2:0.84619999 3:0.4251 4:0.92309999 5:0.2525 6:0.1172 7:0.0241 #
-1 1:0.0022 2:0 3:0.1946 4:0.125 5:0.2308 6:0.029300001 7:0.16869999 #
-1 1:0.039700001 2:0.94739997 3:0.27000001 4:0.94739997 5:0.1376 6:0.073299997 7:0.012 #
-1 1:0.0013 2:0 3:0.061700001 4:0.074100003 5:0.2534 6:0.025599999 7:0.31330001 #
-1 1:0.025900001 2:0.9091 3:0.4465 4:0.9091 5:0.1937 6:0.069600001 7:0.0361 #
-1 1:0.0103 2:0.13330001 3:0.33649999 4:0.2 5:0.1249 6:0.029300001 7:0.060199998 #
-1 1:0.0031000001 2:0.2771 3:0.064499997 4:0.54220003 5:0.76380002 6:0.0403 7:0.90359998 #
6.1900000000000003907985046680551 1:0 2:0.57139999 3:0.052200001 4:0.57139999 5:0.1267 6:0.025599999 7:0.084299996 #
-1 1:0.038400002 2:0.94999999 3:0.25940001 4:0.94999999 5:0.14480001 6:0.098899998 7:0.012 #
-1 1:0.0054000001 2:0.0482 3:0.1392 4:0.0361 5:0.1611 6:0.018300001 7:0.20479999 #
-1 1:0.0085000005 2:1 3:0.2225 4:0.75760001 5:0.044300001 6:0.054900002 7:0.1446 #
-1 1:0.00089999998 2:0.0244 3:0.15719999 4:0.0244 5:0.4425 6:0.022 7:0.32530001 #
-1 1:0.080799997 2:0.83329999 3:0.38550001 4:0.95240003 5:0.2181 6:0.1172 7:0.060199998 #
-1 1:0.017899999 2:0.77780002 3:0.4966 4:0.55559999 5:0.133 6:0.0403 7:0.012 #
-1 1:0.0504 2:0.92860001 3:0.26390001 4:0.92860001 5:0.1991 6:0.1026 7:0.012 #
-1 1:0 2:0.059700001 3:0.1015 4:0 5:0.38010001 6:0.0147 7:0.36140001 #
-1 1:0.0156 2:0.97140002 3:0.28009999 4:0.91430002 5:0.1149 6:0.058600001 7:0.0361 #
-1 1:0.0013 2:0 3:0.1075 4:0 5:0.35569999 6:0.022 7:0.21690001 #
-1 1:0.028100001 2:0.9091 3:0.37349999 4:0.84850001 5:0.1122 6:0.073299997 7:0.0482 #
-1 1:0.0044999998 2:0.1111 3:0.092299998 4:0.1111 5:0.061500002 6:0.033 7:0.1084 #
-1 1:0.0482 2:0.74470001 3:0.41909999 4:0.97869998 5:0.36919999 6:0.1136 7:0.0241 #
-1 1:0.0013 2:0.0385 3:0.085699998 4:0 5:0.3502 6:0.0147 7:0.28920001 #
-1 1:0.0473 2:0.97009999 3:0.2854 4:0.86570001 5:0.2027 6:0.098899998 7:0.060199998 #
-1 1:0.0112 2:0.2 3:0.28529999 4:0.1 5:0.1529 6:0.029300001 7:0.0964 #
-1 1:0.039299998 2:0.90700001 3:0.29120001 4:0.93019998 5:0.24250001 6:0.076899998 7:0.0241 #
-1 1:0.00089999998 2:0.0526 3:0.12909999 4:0 5:0.2235 6:0.011 7:0.2289 #
-1 1:0.021 2:0.81819999 3:0.50470001 4:0.9091 5:0.27689999 6:0.044 7:0 #
-1 1:0.0040000002 2:0.25 3:0.27610001 4:0.25 5:0.043400001 6:0.025599999 7:0.012 #
-1 1:0.0035999999 2:0.2289 3:0.1167 4:0.40959999 5:0.9321 6:0.033 7:0.38550001 #
-1 1:0.041099999 2:0.875 3:0.29280001 4:0.875 5:0.0425 6:0.073299997 7:0.084299996 #
-1 1:0.0013 2:0.13249999 3:0.0832 4:0.2771 5:0.1529 6:0.029300001 7:0.74699998 #
6.1900000000000003907985046680551 1:0.0080000004 2:0.80000001 3:0.41760001 4:0.60000002 5:0.4869 6:0.029300001 7:0.012 #
-1 1:0.068800002 2:0.83329999 3:0.3642 4:0.94440001 5:0.2471 6:0.1136 7:0.012 #
-1 1:0.0013 2:0.2581 3:0.1548 4:0 5:0.55110002 6:0.018300001 7:0.3373 #
-1 1:0.025 2:0.83329999 3:0.39840001 4:0.94440001 5:0.1864 6:0.073299997 7:0.060199998 #
-1 1:0.079499997 2:0.81480002 3:0.33109999 4:0.92589998 5:0.1357 6:0.1062 7:0.0361 #
-1 1:0.00039999999 2:0 3:0.1323 4:0.1064 5:0.43799999 6:0.025599999 7:0.46990001 #
6.1900000000000003907985046680551 1:0.044599999 2:0.89469999 3:0.4718 4:0.89469999 5:0.1231 6:0.091600001 7:0.0241 #
-1 1:0.0473 2:0.73079997 3:0.54449999 4:0.88459998 5:0.2326 6:0.080600001 7:0.012 #
-1 1:0 2:0.25 3:0.19310001 4:0 5:0.15109999 6:0.022 7:0.060199998 #
-1 1:0.033 2:0.82349998 3:0.41749999 4:0.94120002 5:0.2362 6:0.069600001 7:0.012 #
-1 1:0.00039999999 2:0.0625 3:0.1426 4:0 5:0.36739999 6:0.022 7:0.1566 #
6.1900000000000003907985046680551 1:0.0066999998 2:0.2308 3:0.19599999 4:0 5:0.3964 6:0.022 7:0.084299996 #
-1 1:0.0187 2:0.875 3:0.3335 4:0.875 5:0.1267 6:0.0623 7:0.012 #
6.1900000000000003907985046680551 1:0.0098000001 2:0.076899998 3:0.15809999 4:0.2308 5:0.4878 6:0.025599999 7:0.1084 #
-1 1:0.00089999998 2:0 3:0.16429999 4:0.048799999 5:0.4434 6:0.022 7:0.28920001 #
6.1900000000000003907985046680551 1:0.034400001 2:1 3:0.34599999 4:0.91670001 5:0.070600003 6:0.069600001 7:0.060199998 #
-1 1:0.017899999 2:0.86669999 3:0.33469999 4:0.93330002 5:0.18009999 6:0.076899998 7:0.072300002 #
-1 1:0.0031000001 2:0.1538 3:0.17299999 4:0.1538 5:0.088699996 6:0.022 7:0.072300002 #
6.1900000000000003907985046680551 1:0.0098000001 2:0.78130001 3:0.1691 4:0.65630001 5:0.2362 6:0.044 7:0.4578 #
-1 1:0.058499999 2:0.91670001 3:0.27200001 4:0.91670001 5:0.2489 6:0.095200002 7:0.0964 #
-1 1:0 2:0.060600001 3:0.1124 4:0.030300001 5:0.27779999 6:0.018300001 7:0.38550001 #
-1 1:0.0277 2:0.80000001 3:0.49470001 4:0.80000001 5:0.1602 6:0.058600001 7:0.0241 #
6.1900000000000003907985046680551 1:0.00089999998 2:0.4337 3:0.088100001 4:0.25299999 5:0.28240001 6:0.025599999 7:0.69880003 #
-1 1:0 2:0.59039998 3:0.064099997 4:0.13249999 5:0.69230002 6:0.022 7:0.91570002 #
6.1900000000000003907985046680551 1:0.0129 2:0.66670001 3:0.53890002 4:1 5:0.080499999 6:0.044 7:0 #
-1 1:0.0156 2:0.75 3:0.29710001 4:0.875 5:0.029899999 6:0.0623 7:0.0241 #
-1 1:0.0057999999 2:0.1566 3:0.083499998 4:0.55419999 5:0.2145 6:0.0403 7:0.7349 #
-1 1:0.031300001 2:0.80000001 3:0.49489999 4:0.80000001 5:0.1882 6:0.073299997 7:0.0241 #
6.1900000000000003907985046680551 1:0.036600001 2:0.2157 3:0.28569999 4:0.82349998 5:0.2507 6:0.0513 7:0.072300002 #
-1 1:0.0035999999 2:0.75 3:0.096500002 4:0.2031 5:0.124 6:0.025599999 7:0.71079999 #
-1 1:0.019200001 2:0.25529999 3:0.2529 4:0.80849999 5:0.37740001 6:0.0513 7:0.1205 #
-1 1:0.0098000001 2:0.91670001 3:0.32879999 4:0.5 5:0.067900002 6:0.033 7:0.0482 #
-1 1:0 2:0.3373 3:0.0823 4:0.0241 5:0.2606 6:0.0147 7:0.759 #
-1 1:0.0241 2:0.91670001 3:0.29789999 4:0.91670001 5:0.37470001 6:0.047600001 7:0.0241 #
6.1900000000000003907985046680551 1:0.00089999998 2:0.31909999 3:0.1043 4:0.19149999 5:0.079599999 6:0.025599999 7:0.55419999 #
-1 1:0.0022 2:0.1463 3:0.1279 4:0.1707 5:0.1249 6:0.029300001 7:0.4217 #
-1 1:0.0513 2:0.88889998 3:0.27880001 4:0.88889998 5:0.26609999 6:0.076899998 7:0.012 #
-1 1:0.0031000001 2:0.066699997 3:0.2256 4:0.066699997 5:0.26789999 6:0.018300001 7:0.13249999 #
6.1900000000000003907985046680551 1:0.0049000001 2:0.61699998 3:0.13779999 4:0.70209998 5:0.1982 6:0.0403 7:0.4578 #
-1 1:0.00039999999 2:0.4217 3:0.0678 4:0.1928 5:0.51859999 6:0.025599999 7:0.87949997 #
6.1900000000000003907985046680551 1:0.0147 2:0.91670001 3:0.35249999 4:0.91670001 5:0.043400001 6:0.0513 7:0.012 #
-1 1:0.024599999 2:0.89999998 3:0.24079999 4:0.89999998 5:0.1158 6:0.0623 7:0.0241 #
-1 1:0.0143 2:0.55559999 3:0.4386 4:0.77780002 5:0.063299999 6:0.0513 7:0.0361 #
-1 1:0.00039999999 2:0 3:0.1609 4:0.22220001 5:0.1376 6:0.036600001 7:0.1084 #
-1 1:0.035700001 2:0.91670001 3:0.3193 4:0.86110002 5:0.2462 6:0.076899998 7:0.1205 #
6.1900000000000003907985046680551 1:0.00039999999 2:0.1429 3:0.077500001 4:0.1429 5:0.105 6:0.022 7:0.072300002 #
-1 1:0.00039999999 2:0.125 3:0.082900003 4:0 5:0.30230001 6:0.025599999 7:0.0964 #
-1 1:0.00039999999 2:0.1875 3:0.213 4:0 5:0.2199 6:0.025599999 7:0.1807 #
6.1900000000000003907985046680551 1:0.0013 2:0.1 3:0.2305 4:0.1 5:0.1339 6:0.022 7:0.084299996 #
-1 1:0.0018 2:0.95450002 3:0.1106 4:0.86360002 5:0.2561 6:0.047600001 7:0.21690001 #
6.1900000000000003907985046680551 1:0.0143 2:1 3:0.3585 4:0.875 5:0.14749999 6:0.065899998 7:0.0482 #
-1 1:0.00039999999 2:0 3:0.1788 4:0.1111 5:0.2606 6:0.022 7:0.16869999 #
-1 1:0.039700001 2:0.95240003 3:0.2624 4:0.83329999 5:0.1176 6:0.073299997 7:0.084299996 #
-1 1:0.0103 2:0 3:0.2881 4:0.35479999 5:0.3276 6:0.029300001 7:0.084299996 #
6.1900000000000003907985046680551 1:0.0040000002 2:0.87879997 3:0.1742 4:0.5758 5:0.083300002 6:0.0403 7:0.241 #
6.1900000000000003907985046680551 1:0.0057999999 2:0 3:0.1921 4:0.25 5:0.2308 6:0.029300001 7:0.072300002 #
-1 1:0.0277 2:0.96149999 3:0.2112 4:0.76920003 5:0.2 6:0.065899998 7:0.1084 #
-1 1:0.0044999998 2:0.057100002 3:0.1231 4:0.0286 5:0.3529 6:0.022 7:0.31330001 #
-1 1:0.035700001 2:0.55559999 3:0.4702 4:0.61110002 5:0.1665 6:0.054900002 7:0.0241 #
-1 1:0 2:0.46880001 3:0.076099999 4:0.0156 5:0.46329999 6:0.018300001 7:0.759 #
-1 1:0.038400002 2:0.83329999 3:0.33379999 4:0.875 5:0.133 6:0.069600001 7:0.0361 #
-1 1:0.0219 2:0.92309999 3:0.2193 4:0.92309999 5:0.1982 6:0.058600001 7:0.0361 #
-1 1:0 2:0.16670001 3:0.14929999 4:0.16670001 5:0.38190001 6:0.025599999 7:0.060199998 #
6.1900000000000003907985046680551 1:0.0165 2:0.83329999 3:0.38999999 4:0.83329999 5:0.35839999 6:0.044 7:0.012 #
-1 1:0.067900002 2:0.73439997 3:0.3809 4:0.90630001 5:0.30860001 6:0.1026 7:0.060199998 #
-1 1:0.00089999998 2:0.076899998 3:0.1204 4:0.076899998 5:0.14120001 6:0.018300001 7:0.1446 #
-1 1:0.030400001 2:0.875 3:0.33719999 4:0.875 5:0.27059999 6:0.065899998 7:0.0241 #
-1 1:0.0031000001 2:0.1 3:0.2586 4:0.1 5:0.1991 6:0.029300001 7:0.060199998 #
-1 1:0.0147 2:0.92309999 3:0.20649999 4:0.92309999 5:0.17560001 6:0.054900002 7:0.0482 #
-1 1:0.036600001 2:0.89469999 3:0.2626 4:0.89469999 5:0.1376 6:0.073299997 7:0.0241 #
-1 1:0.0057999999 2:0 3:0.19769999 4:0.1212 5:0.3475 6:0.029300001 7:0.1807 #
-1 1:0.021400001 2:0.88239998 3:0.3021 4:0.88239998 5:0.24519999 6:0.0623 7:0.0241 #
6.1900000000000003907985046680551 1:0.0018 2:0.82859999 3:0.148 4:0.74290001 5:0.1692 6:0.0403 7:0.28920001 #
-1 1:0.0080000004 2:0.090899996 3:0.35780001 4:0.36359999 5:0.24250001 6:0.029300001 7:0.0361 #
-1 1:0.019200001 2:0.90359998 3:0.12970001 4:0.85540003 5:0.57920003 6:0.058600001 7:0.2771 #
-1 1:0.0071 2:0.071400002 3:0.092699997 4:0.071400002 5:0.20720001 6:0.025599999 7:0.1205 #
-1 1:0.0348 2:0.875 3:0.34259999 4:0.83329999 5:0.23980001 6:0.069600001 7:0.0241 #
-1 1:0.00089999998 2:0.1111 3:0.24250001 4:0.1111 5:0.1548 6:0.022 7:0.0964 #
-1 1:0.0027000001 2:0.9091 3:0.16500001 4:0.9091 5:0.074199997 6:0.0403 7:0.1084 #
-1 1:0 2:0.071400002 3:0.1284 4:0.047600001 5:0.45699999 6:0.025599999 7:0.40959999 #
-1 1:0.026799999 2:0.77780002 3:0.3928 4:0.88889998 5:0.14390001 6:0.058600001 7:0.012 #
-1 1:0.0057999999 2:0.33329999 3:0.39840001 4:0.33329999 5:0.1023 6:0.044 7:0.0482 #
-1 1:0.054900002 2:0.79100001 3:0.097999997 4:0.88059998 5:0.36379999 6:0.1062 7:0.38550001 #
-1 1:0.0022 2:0 3:0.14030001 4:0.0526 5:0.31400001 6:0.018300001 7:0.21690001 #
-1 1:0.0022 2:0.1389 3:0.1428 4:0 5:0.3222 6:0.0147 7:0.3012 #
-1 1:0.034400001 2:0.77780002 3:0.4551 4:0.77780002 5:0.124 6:0.065899998 7:0.0361 #
6.1900000000000003907985046680551 1:0.0187 2:0.80599999 3:0.1033 4:0.65670002 5:0.20630001 6:0.0513 7:0.34940001 #
-1 1:0.0071 2:0.045499999 3:0.2392 4:0.27270001 5:0.30320001 6:0.029300001 7:0.1205 #
-1 1:0.0219 2:0.90319997 3:0.2726 4:0.87099999 5:0.2244 6:0.054900002 7:0.1205 #
-1 1:0.00089999998 2:0.058800001 3:0.21610001 4:0.058800001 5:0.27059999 6:0.025599999 7:0.13249999 #
-1 1:0.0134 2:0.86360002 3:0.1507 4:0.95450002 5:0.23710001 6:0.054900002 7:0.0964 #
6.1900000000000003907985046680551 1:0.035700001 2:0.81819999 3:0.25799999 4:0.96969998 5:0.1593 6:0.087899998 7:0.012 #
-1 1:0.00039999999 2:0.28920001 3:0.1154 4:0.060199998 5:0.73299998 6:0.018300001 7:0.40959999 #
-1 1:0.023700001 2:0.84210002 3:0.34619999 4:0.7895 5:0.064300001 6:0.076899998 7:0.060199998 #
6.1900000000000003907985046680551 1:0.0156 2:0.64289999 3:0.1046 4:0.54759997 5:0.3475 6:0.044 7:0.46990001 #
-1 1:0.028999999 2:0.2667 3:0.38249999 4:0.53329998 5:0.2045 6:0.0403 7:0.0361 #
-1 1:0.0027000001 2:0.79519999 3:0.069600001 4:0.241 5:0.77100003 6:0.025599999 7:0.8434 #
-1 1:0.0031000001 2:0.2 3:0.3127 4:0.2 5:0.1376 6:0.022 7:0.0241 #
-1 1:0.056299999 2:0.80000001 3:0.24250001 4:0.9429 5:0.1312 6:0.1099 7:0.0964 #
-1 1:0.0013 2:0 3:0.1047 4:0.0625 5:0.3204 6:0.029300001 7:0.1928 #
-1 1:0.042399999 2:0.86110002 3:0.2987 4:0.86110002 5:0.1665 6:0.073299997 7:0.0361 #
-1 1:0.00089999998 2:0.3906 3:0.1446 4:0.0625 5:0.14120001 6:0.022 7:0.59039998 #
-1 1:0.034400001 2:0.74190003 3:0.3906 4:0.90319997 5:0.4145 6:0.0623 7:0.0361 #
-1 1:0.0027000001 2:0.40630001 3:0.1595 4:0.1094 5:0.14390001 6:0.025599999 7:0.51810002 #
-1 1:0.051800001 2:0.82929999 3:0.2484 4:0.92680001 5:0.26969999 6:0.091600001 7:0.084299996 #
-1 1:0.00089999998 2:0.3976 3:0.1118 4:0.084299996 5:0.14749999 6:0.018300001 7:0.49399999 #
6.1900000000000003907985046680551 1:0.0071 2:0.23810001 3:0.1514 4:0.38100001 5:0.3946 6:0.036600001 7:0.3012 #
-1 1:0.0031000001 2:0.1961 3:0.1283 4:0.0196 5:0.30950001 6:0.018300001 7:0.55419999 #
6.1900000000000003907985046680551 1:0.0027000001 2:0.15790001 3:0.16509999 4:0.1053 5:0.23890001 6:0.025599999 7:0.1566 #
-1 1:0.068300001 2:0.82090002 3:0.1979 4:0.8955 5:0.3195 6:0.1172 7:0.072300002 #
6.1900000000000003907985046680551 1:0.0308 2:0.8125 3:0.22319999 4:0.875 5:0.14749999 6:0.080600001 7:0.241 #
-1 1:0 2:0.083300002 3:0.17739999 4:0.083300002 5:0.1891 6:0.022 7:0.084299996 #
-1 1:0.0093999999 2:0.875 3:0.2131 4:0.875 5:0.105 6:0.044 7:0.0361 #
-1 1:0 2:0.25 3:0.1723 4:0.041700002 5:0.54659998 6:0.018300001 7:0.241 #
-1 1:0.0286 2:0.83329999 3:0.36559999 4:0.83329999 5:0.17470001 6:0.069600001 7:0.0361 #
-1 1:0 2:0.1 3:0.2093 4:0.1 5:0.1656 6:0.022 7:0.084299996 #
6.1900000000000003907985046680551 1:0.0147 2:0.83329999 3:0.26730001 4:0.83329999 5:0.36559999 6:0.047600001 7:0.0361 #
-1 1:0.0112 2:0.94120002 3:0.2669 4:0.82349998 5:0.24250001 6:0.054900002 7:0.060199998 #
-1 1:0.0063 2:0.041700002 3:0.1868 4:0.16670001 5:0.1276 6:0.025599999 7:0.1566 #
-1 1:0.020099999 2:0.86669999 3:0.2244 4:0.86669999 5:0.4443 6:0.0513 7:0.0361 #
6.1900000000000003907985046680551 1:0.039700001 2:0.86570001 3:0.1418 4:0.82090002 5:0.2335 6:0.084200002 7:0.16869999 #
-1 1:0.0044999998 2:0.125 3:0.2247 4:0.125 5:0.20630001 6:0.022 7:0.012 #
-1 1:0.028999999 2:0.85710001 3:0.29409999 4:0.85710001 5:0.162 6:0.073299997 7:0.0361 #
-1 1:0.0054000001 2:0.0526 3:0.091899998 4:0.0526 5:0.2018 6:0.022 7:0.1807 #
-1 1:0.064300001 2:0.78570002 3:0.35330001 4:0.85710001 5:0.14120001 6:0.076899998 7:0.072300002 #
-1 1:0.032099999 2:0.5 3:0.4386 4:0.69999999 5:0.18009999 6:0.058600001 7:0.0361 #
-1 1:0 2:1 3:0.086599998 4:0.1714 5:0.1855 6:0.022 7:0.40959999 #
-1 1:0.054000001 2:0.59570003 3:0.4165 4:0.9149 5:0.257 6:0.087899998 7:0.0361 #
-1 1:0.0031000001 2:0.58329999 3:0.2651 4:0.33329999 5:0.029899999 6:0.025599999 7:0.060199998 #
-1 1:0.0044999998 2:0.0625 3:0.1415 4:0.2969 5:0.486 6:0.029300001 7:0.6024 #
6.1900000000000003907985046680551 1:0.0286 2:1 3:0.51599997 4:0.89999998 5:0.1294 6:0.069600001 7:0.012 #
-1 1:0.00039999999 2:0.88889998 3:0.28929999 4:0.77780002 5:0.061500002 6:0.047600001 7:0.0361 #
-1 1:0.00039999999 2:0.67189997 3:0.1322 4:0.3906 5:0.1321 6:0.033 7:0.61449999 #
-1 1:0.0049000001 2:0 3:0.1149 4:0.25 5:0.191 6:0.033 7:0.060199998 #
-1 1:0.042399999 2:0.92189997 3:0.2816 4:0.76560003 5:0.31760001 6:0.058600001 7:0.1205 #
-1 1:0.029899999 2:0.77780002 3:0.30680001 4:0.77780002 5:0.162 6:0.054900002 7:0.0241 #
-1 1:0.00039999999 2:0.18179999 3:0.2888 4:0.090899996 5:0.2326 6:0.022 7:0.1205 #
-1 1:0.0143 2:0.875 3:0.1609 4:0.875 5:0.17560001 6:0.0623 7:0.13249999 #
-1 1:0.00089999998 2:0.045499999 3:0.1269 4:0.045499999 5:0.2507 6:0.022 7:0.16869999 #
-1 1:0.046 2:0.77780002 3:0.33219999 4:0.88889998 5:0.2163 6:0.098899998 7:0.0241 #
-1 1:0.0196 2:0.66670001 3:0.45089999 4:0.66670001 5:0.1167 6:0.036600001 7:0.012 #
-1 1:0 2:0.097999997 3:0.0744 4:0.097999997 5:0.4923 6:0.022 7:0.6024 #
-1 1:0.0308 2:0.875 3:0.31060001 4:0.75 5:0.1285 6:0.0623 7:0.012 #
-1 1:0.0085000005 2:0.27270001 3:0.2744 4:0.18179999 5:0.1339 6:0.018300001 7:0.012 #
-1 1:0.0504 2:0.68660003 3:0.085900001 4:0.85070002 5:0.36649999 6:0.091600001 7:0.49399999 #
-1 1:0.023700001 2:0.83329999 3:0.3556 4:0.83329999 5:0.229 6:0.073299997 7:0.084299996 #
-1 1:0.0027000001 2:0.076899998 3:0.1574 4:0 5:0.30950001 6:0.022 7:0.2771 #
-1 1:0.0116 2:0.66670001 3:0.44949999 4:0.88889998 5:0.1584 6:0.054900002 7:0.0241 #
-1 1:0.030400001 2:0.84619999 3:0.29100001 4:0.84619999 5:0.31760001 6:0.058600001 7:0.012 #
-1 1:0.0491 2:0.76190001 3:0.28080001 4:0.9048 5:0.2317 6:0.076899998 7:0.072300002 #
6.1900000000000003907985046680551 1:0.0044999998 2:0.16670001 3:0.17649999 4:0.16670001 5:0.2036 6:0.025599999 7:0.20479999 #
-1 1:0.0054000001 2:0.085699998 3:0.1022 4:0.057100002 5:0.27329999 6:0.025599999 7:0.37349999 #
-1 1:0.0107 2:0.9091 3:0.3556 4:0.72729999 5:0.17829999 6:0.036600001 7:0.0482 #
6.1900000000000003907985046680551 1:0.040600002 2:0.875 3:0.1512 4:0.875 5:0.1339 6:0.065899998 7:0.0241 #
-1 1:0.0013 2:0.0385 3:0.15440001 4:0.1538 5:0.30140001 6:0.025599999 7:0.28920001 #
-1 1:0.0228 2:0.80000001 3:0.2157 4:0.93330002 5:0.17380001 6:0.0513 7:0.060199998 #
-1 1:0.0147 2:0.40000001 3:0.3536 4:0.40000001 5:0.1321 6:0.036600001 7:0.0482 #
-1 1:0.0013 2:0.125 3:0.2174 4:0.125 5:0.24160001 6:0.018300001 7:0.0241 #
6.1900000000000003907985046680551 1:0.0031000001 2:0.16670001 3:0.21619999 4:0.16670001 5:0.1656 6:0.025599999 7:0.072300002 #
-1 1:0.0022 2:0 3:0.098399997 4:0.1143 5:0.248 6:0.029300001 7:0.38550001 #
-1 1:0.0156 2:0.5 3:0.40490001 4:0.58329999 5:0.1122 6:0.0403 7:0.012 #
-1 1:0.00089999998 2:0.80720001 3:0.072099999 4:0.37349999 5:0.5855 6:0.029300001 7:0.80720001 #
-1 1:0.0018 2:0.40000001 3:0.34209999 4:0.80000001 5:0.1683 6:0.033 7:0.0241 #
-1 1:0.0035999999 2:0.52380002 3:0.16670001 4:0.33329999 5:0.083300002 6:0.033 7:0.25299999 #
-1 1:0.0093999999 2:0 3:0.096199997 4:0.1429 5:0.2281 6:0.025599999 7:0.16869999 #
-1 1:0.0196 2:0.92589998 3:0.28470001 4:0.77780002 5:0.2054 6:0.065899998 7:0.072300002 #
-1 1:0.057100002 2:0.75 3:0.39210001 4:0.75 5:0.14210001 6:0.076899998 7:0.0241 #
-1 1:0.00089999998 2:0 3:0.114 4:0.1111 5:0.324 6:0.025599999 7:0.38550001 #
6.1900000000000003907985046680551 1:0.0040000002 2:0.22220001 3:0.1761 4:0.1111 5:0.1593 6:0.033 7:0.0964 #
-1 1:0.040199999 2:0.66670001 3:0.45730001 4:0.88889998 5:0.38999999 6:0.091600001 7:0.0241 #
-1 1:0.00039999999 2:0.18179999 3:0.14839999 4:0.045499999 5:0.14480001 6:0.018300001 7:0.241 #
-1 1:0.020099999 2:0.875 3:0.2123 4:0.875 5:0.2471 6:0.058600001 7:0.0361 #
-1 1:0 2:0.076899998 3:0.15189999 4:0.076899998 5:0.2199 6:0.022 7:0.1566 #
6.1900000000000003907985046680551 1:0.0228 2:0.9091 3:0.25260001 4:0.9091 5:0.2244 6:0.054900002 7:0.012 #
-1 1:0.032600001 2:0.80769998 3:0.34110001 4:0.84619999 5:0.23800001 6:0.069600001 7:0.060199998 #
-1 1:0.0063 2:0.25 3:0.14920001 4:0.041700002 5:0.1629 6:0.025599999 7:0.2771 #
-1 1:0.022299999 2:0.87879997 3:0.2208 4:0.84850001 5:0.2597 6:0.0623 7:0.0482 #
-1 1:0.0254 2:0.80000001 3:0.42289999 4:0.80000001 5:0.30860001 6:0.047600001 7:0.012 #
6.1900000000000003907985046680551 1:0.032099999 2:0.89999998 3:0.51999998 4:0.89999998 5:0.1312 6:0.069600001 7:0.012 #
-1 1:0 2:0.090899996 3:0.12549999 4:0.090899996 5:0.1692 6:0.022 7:0.0964 #
-1 1:0.020500001 2:0.77780002 3:0.39179999 4:0.77780002 5:0.1357 6:0.065899998 7:0.072300002 #
-1 1:0.0513 2:0.66670001 3:0.35519999 4:0.66670001 5:0.152 6:0.073299997 7:0.0361 #
0.99999999988687537921805414953269 1:0.021400001 2:0.88889998 3:0.50269997 4:1 5:0.067900002 6:0.0623 7:0 #
-1 1:0.00039999999 2:0.3281 3:0.12989999 4:0.078100003 5:0.4172 6:0.022 7:0.62650001 #
-1 1:0.0040000002 2:0.85710001 3:0.2097 4:0.85710001 5:0.1701 6:0.047600001 7:0.0241 #
-1 1:0.038400002 2:0.42309999 3:0.43110001 4:0.76920003 5:0.2262 6:0.0623 7:0.0361 #
-1 1:0 2:0.8039 3:0.094400004 4:0.0392 5:0.47330001 6:0.018300001 7:0.5783 #
-1 1:0.0241 2:0.41670001 3:0.2814 4:0.75 5:0.14390001 6:0.058600001 7:0.0964 #
-1 1:0.028999999 2:0.76920003 3:0.2049 4:0.76920003 5:0.054299999 6:0.0623 7:0.0482 #
6.1900000000000003907985046680551 1:0.042399999 2:0.9375 3:0.51499999 4:1 5:0.1964 6:0.091600001 7:0 #
-1 1:0.00039999999 2:0.1 3:0.0876 4:0.1 5:0.1303 6:0.022 7:0.1205 #
-1 1:0.054900002 2:0.74290001 3:0.2418 4:0.85710001 5:0.1249 6:0.1026 7:0.1084 #
6.1900000000000003907985046680551 1:0.0035999999 2:0.20829999 3:0.1798 4:0.29170001 5:0.37290001 6:0.029300001 7:0.21690001 #
-1 1:0.0049000001 2:0.023800001 3:0.13420001 4:0.095200002 5:0.40450001 6:0.029300001 7:0.37349999 #
-1 1:0.0066999998 2:0.77780002 3:0.4093 4:0.77780002 5:0.152 6:0.025599999 7:0.060199998 #
-1 1:0.0054000001 2:0.2 3:0.29159999 4:0.2 5:0.1855 6:0.029300001 7:0.0482 #
-1 1:0.030400001 2:0.83719999 3:0.1166 4:0.83719999 5:0.2208 6:0.0623 7:0.31330001 #
-1 1:0.0013 2:0.083300002 3:0.19149999 4:0.083300002 5:0.28240001 6:0.022 7:0.1205 #
-1 1:0.0232 2:0.75 3:0.39989999 4:0.75 5:0.17560001 6:0.047600001 7:0.012 #
-1 1:0.0057999999 2:0.090899996 3:0.1567 4:0.060600001 5:0.26789999 6:0.025599999 7:0.2289 #
6.1900000000000003907985046680551 1:0.037500001 2:0.90630001 3:0.2441 4:0.89060003 5:0.14210001 6:0.098899998 7:0.1807 #
-1 1:0.021 2:0.86049998 3:0.1594 4:0.88370001 5:0.2525 6:0.0623 7:0.13249999 #
-1 1:0.0071 2:0.33329999 3:0.39120001 4:0.44440001 5:0.1647 6:0.0403 7:0.060199998 #
-1 1:0.00089999998 2:0.90200001 3:0.1925 4:0.70590001 5:0.1222 6:0.036600001 7:0.241 #
-1 1:0.0040000002 2:0.050000001 3:0.079099998 4:0.050000001 5:0.30680001 6:0.022 7:0.2289 #
-1 1:0.0071 2:0.80000001 3:0.31040001 4:0.80000001 5:0.074199997 6:0.036600001 7:0.0361 #
-1 1:0.0112 2:0.16670001 3:0.27540001 4:0.33329999 5:0.18189999 6:0.036600001 7:0.1084 #
-1 1:0.018300001 2:0.9091 3:0.18170001 4:0.81819999 5:0.27419999 6:0.058600001 7:0.1205 #
-1 1:0.00089999998 2:0.1111 3:0.14749999 4:0.1111 5:0.1321 6:0.025599999 7:0.084299996 #
-1 1:0.037900001 2:0.81400001 3:0.20829999 4:0.86049998 5:0.2226 6:0.0623 7:0.072300002 #
-1 1:0.0085000005 2:0.19230001 3:0.2008 4:0.0385 5:0.2172 6:0.022 7:0.1807 #
-1 1:0.0634 2:0.6857 3:0.30939999 4:0.88569999 5:0.2299 6:0.1062 7:0.0361 #
-1 1:0.0040000002 2:0 3:0.1428 4:0.25 5:0.1674 6:0.033 7:0.0964 #
-1 1:0.0121 2:0.88569999 3:0.23980001 4:0.77139997 5:0.14929999 6:0.044 7:0.060199998 #
-1 1:0.019200001 2:0.33329999 3:0.36930001 4:0.41670001 5:0.1991 6:0.036600001 7:0.0361 #
-1 1:0.0228 2:0.72219998 3:0.3389 4:0.80559999 5:0.1674 6:0.069600001 7:0.1084 #
-1 1:0.0057999999 2:0.095200002 3:0.095600002 4:0.071400002 5:0.30680001 6:0.025599999 7:0.49399999 #
6.1900000000000003907985046680551 1:0.1004 2:0.87230003 3:0.51289999 4:1 5:0.2335 6:0.1355 7:0 #
-1 1:0.029899999 2:0.80559999 3:0.2911 4:0.80559999 5:0.1638 6:0.069600001 7:0.0482 #
6.1900000000000003907985046680551 1:0.00089999998 2:0.6275 3:0.14129999 4:0.49020001 5:0.1041 6:0.033 7:0.50599998 #
-1 1:0.025900001 2:0.66670001 3:0.43079999 4:0.75 5:0.162 6:0.065899998 7:0.012 #
-1 1:0.0057999999 2:0.2656 3:0.117 4:0.125 5:0.3231 6:0.025599999 7:0.6627 #
-1 1:0.019200001 2:0.83329999 3:0.27239999 4:0.83329999 5:0.23800001 6:0.047600001 7:0.0241 #
-1 1:0.020500001 2:0.61110002 3:0.41760001 4:0.66670001 5:0.24519999 6:0.054900002 7:0.0361 #
6.1900000000000003907985046680551 1:0.00039999999 2:0.58819997 3:0.1454 4:0.1961 5:0.2489 6:0.025599999 7:0.46990001 #
-1 1:0.0035999999 2:0.21430001 3:0.095100001 4:0.023800001 5:0.37560001 6:0.025599999 7:0.50599998 #
-1 1:0.0174 2:0.87099999 3:0.2967 4:0.77420002 5:0.1674 6:0.044 7:0.072300002 #
-1 1:0.0451 2:0.76920003 3:0.29800001 4:0.84619999 5:0.1964 6:0.076899998 7:0.0482 #
-1 1:0.0044999998 2:0.25 3:0.2494 4:0.25 5:0.0977 6:0.0403 7:0.0482 #
-1 1:0.0254 2:0.88099998 3:0.2353 4:0.73809999 5:0.088699996 6:0.0513 7:0.0964 #
-1 1:0.0018 2:0.073200002 3:0.088799998 4:0.097599998 5:0.28510001 6:0.025599999 7:0.48190001 #
-1 1:0.036200002 2:0.74070001 3:0.2999 4:0.85189998 5:0.20630001 6:0.091600001 7:0.0482 #
6.1900000000000003907985046680551 1:0 2:0.46149999 3:0.13349999 4:0.1154 5:0.1131 6:0.022 7:0.3012 #
-1 1:0 2:1 3:0.1682 4:0.25529999 5:0.17380001 6:0.025599999 7:0.3012 #
-1 1:0.056299999 2:0.55559999 3:0.28889999 4:0.88889998 5:0.2462 6:0.091600001 7:0.060199998 #
-1 1:0 2:0.48390001 3:0.18449999 4:0.064499997 5:0.18009999 6:0.022 7:0.2771 #
-1 1:0.0429 2:0.71429998 3:0.19140001 4:0.92860001 5:0.2018 6:0.076899998 7:0.0482 #
6.1900000000000003907985046680551 1:0.0022 2:0.25 3:0.2369 4:0.083300002 5:0.1122 6:0.025599999 7:0.0964 #
-1 1:0.0018 2:0.0392 3:0.1453 4:0.3529 5:0.60720003 6:0.022 7:0.48190001 #
-1 1:0.035700001 2:0.73680001 3:0.4095 4:0.73680001 5:0.29679999 6:0.0623 7:0.0361 #
-1 1:0.0063 2:0.2344 3:0.1215 4:0.1719 5:0.3213 6:0.025599999 7:0.63859999 #
-1 1:0.0116 2:0.75 3:0.34119999 4:0.75 5:0.14659999 6:0.0403 7:0.0361 #
6.1900000000000003907985046680551 1:0.0076000001 2:0.17649999 3:0.2085 4:0.4118 5:0.30770001 6:0.033 7:0.1566 #
-1 1:0.0018 2:0.0625 3:0.1331 4:0.0625 5:0.27239999 6:0.022 7:0.16869999 #
-1 1:0.0152 2:0.80000001 3:0.31900001 4:0.80000001 5:0.17290001 6:0.058600001 7:0.0361 #
6.1900000000000003907985046680551 1:0.0044999998 2:0.33329999 3:0.1499 4:0.33329999 5:0.34119999 6:0.033 7:0.072300002 #
-1 1:0.0022 2:0.069799997 3:0.1602 4:0.186 5:0.1529 6:0.029300001 7:0.1205 #
-1 1:0.0277 2:0.86269999 3:0.2103 4:0.88239998 5:0.40090001 6:0.054900002 7:0.13249999 #
-1 1:0.0098000001 2:0.29409999 3:0.28400001 4:0.1176 5:0.2036 6:0.025599999 7:0.0482 #
6.1900000000000003907985046680551 1:0.0134 2:0.76920003 3:0.2235 4:0.84619999 5:0.2498 6:0.047600001 7:0.0241 #
-1 1:0.020500001 2:0.81819999 3:0.2687 4:0.78789997 5:0.1357 6:0.0623 7:0.084299996 #
-1 1:0.00039999999 2:0.125 3:0.1709 4:0.125 5:0.1683 6:0.025599999 7:0.0964 #
-1 1:0.0093999999 2:0.97140002 3:0.2193 4:0.65710002 5:0.1584 6:0.054900002 7:0.13249999 #
-1 1:0.0018 2:0.33329999 3:0.29609999 4:0.33329999 5:0.094999999 6:0.033 7:0.072300002 #
-1 1:0.00039999999 2:0.9429 3:0.13590001 4:0.6286 5:0.14120001 6:0.0513 7:0.2771 #
-1 1:0.00089999998 2:0.032299999 3:0.1795 4:0.32260001 5:0.4127 6:0.029300001 7:0.28920001 #
-1 1:0.024599999 2:0.76599997 3:0.27469999 4:0.85110003 5:0.1955 6:0.065899998 7:0.0964 #
-1 1:0.0022 2:0.30000001 3:0.27289999 4:0.2 5:0.1566 6:0.029300001 7:0.1084 #
-1 1:0.0093999999 2:0.87800002 3:0.2182 4:0.78049999 5:0.17470001 6:0.047600001 7:0.13249999 #
-1 1:0.0057999999 2:0.055599999 3:0.1212 4:0.1111 5:0.3312 6:0.025599999 7:0.4217 #
-1 1:0.016100001 2:0.81819999 3:0.21960001 4:0.81819999 5:0.14929999 6:0.0513 7:0.0241 #
-1 1:0.0295 2:0.80949998 3:0.3612 4:0.71429998 5:0.2235 6:0.054900002 7:0.012 #
-1 1:0.0044999998 2:0 3:0.15629999 4:0.33329999 5:0.1557 6:0.029300001 7:0.1084 #
-1 1:0.031300001 2:0.84619999 3:0.31979999 4:0.73079997 5:0.24070001 6:0.065899998 7:0.0482 #
6.1900000000000003907985046680551 1:0.017899999 2:0.1064 3:0.2148 4:0.42550001 5:0.23890001 6:0.033 7:0.1928 #
-1 1:0 2:0.1176 3:0.1635 4:0.29409999 5:0.067900002 6:0.029300001 7:0.1928 #
-1 1:0.0317 2:0.54170001 3:0.33289999 4:0.66670001 5:0.095899999 6:0.054900002 7:0.0482 #
-1 1:0.0018 2:0.70209998 3:0.15109999 4:0.234 5:0.083300002 6:0.025599999 7:0.40959999 #
-1 1:0.017899999 2:0.74699998 3:0.14399999 4:0.91570002 5:0.79000002 6:0.080600001 7:0.1928 #
6.1900000000000003907985046680551 1:0.0612 2:0.85710001 3:0.36759999 4:0.9429 5:0.29949999 6:0.098899998 7:0.0241 #
-1 1:0.0013 2:0.1875 3:0.124 4:0 5:0.24160001 6:0.018300001 7:0.1205 #
-1 1:0.0049000001 2:0.2093 3:0.064199999 4:0.3256 5:0.1548 6:0.033 7:0.50599998 #
-1 1:0.0187 2:0.84619999 3:0.32699999 4:0.76920003 5:0.34299999 6:0.047600001 7:0.012 #
-1 1:0.0013 2:0.083300002 3:0.17030001 4:0.083300002 5:0.2317 6:0.018300001 7:0.1446 #
-1 1:0.0263 2:0.76920003 3:0.3355 4:0.80769998 5:0.2335 6:0.069600001 7:0.072300002 #
-1 1:0.00089999998 2:0.80559999 3:0.1362 4:0.25 5:0.0986 6:0.025599999 7:0.38550001 #
-1 1:0.033500001 2:0.69700003 3:0.27610001 4:0.87879997 5:0.2561 6:0.080600001 7:0.072300002 #
-1 1:0.0044999998 2:0.75 3:0.25299999 4:0.83329999 5:0.053399999 6:0.047600001 7:0.084299996 #
-1 1:0.0143 2:0.5 3:0.4066 4:0.66670001 5:0.24339999 6:0.0513 7:0.0241 #
-1 1:0.0040000002 2:0.46810001 3:0.1146 4:0.042599998 5:0.4262 6:0.022 7:0.54220003 #
-1 1:0.0603 2:0.75 3:0.1918 4:0.8125 5:0.14749999 6:0.098899998 7:0.084299996 #
-1 1:0.0035999999 2:0.88459998 3:0.071400002 4:0.42309999 5:0 6:0.029300001 7:0.31330001 #
-1 1:0.0022 2:0 3:0.16320001 4:0.19230001 5:0.29949999 6:0.025599999 7:0.2651 #
6.1900000000000003907985046680551 1:0.0027000001 2:0.9149 3:0.1674 4:0.46810001 5:0.13850001 6:0.033 7:0.31330001 #
-1 1:0.0138 2:0.88889998 3:0.26199999 4:0.70370001 5:0.2036 6:0.0623 7:0.084299996 #
-1 1:0.0054000001 2:0.064499997 3:0.19059999 4:0.12899999 5:0.2471 6:0.025599999 7:0.25299999 #
-1 1:0.0129 2:0.81819999 3:0.1485 4:0.9091 5:0.23710001 6:0.0513 7:0.1084 #
-1 1:0.0054000001 2:0.58329999 3:0.1515 4:0.45829999 5:0.00089999998 6:0.036600001 7:0.25299999 #
-1 1:0.00089999998 2:0.057100002 3:0.18970001 4:0.1429 5:0.36469999 6:0.025599999 7:0.1446 #
-1 1:0.020099999 2:0.83329999 3:0.2027 4:0.83329999 5:0.20900001 6:0.0513 7:0.060199998 #
-1 1:0.041499998 2:0.25 3:0.28009999 4:0.625 5:0.20900001 6:0.087899998 7:0.0361 #
-1 1:0.0049000001 2:0.77609998 3:0.086300001 4:0.16419999 5:0.2326 6:0.022 7:0.48190001 #
6.1900000000000003907985046680551 1:0.0054000001 2:0.80769998 3:0.105 4:0.30770001 5:0.105 6:0.025599999 7:0.241 #
-1 1:0.0125 2:0.40000001 3:0.3423 4:0.73329997 5:0.20720001 6:0.047600001 7:0.0482 #
6.1900000000000003907985046680551 1:0 2:0.625 3:0.093000002 4:0.1875 5:0.14839999 6:0.029300001 7:0.1807 #
-1 1:0.0063 2:0.34040001 3:0.1855 4:0.2128 5:0.069700003 6:0.025599999 7:0.241 #
-1 1:0.033500001 2:0.78789997 3:0.24869999 4:0.87879997 5:0.3249 6:0.065899998 7:0.0241 #
6.1900000000000003907985046680551 1:0.0022 2:0.22220001 3:0.2158 4:0.22220001 5:0.1566 6:0.025599999 7:0.1084 #
-1 1:0.0027000001 2:0.22220001 3:0.296 4:0.22220001 5:0.2335 6:0.025599999 7:0.1084 #
-1 1:0.0022 2:0.93019998 3:0.13519999 4:0.6512 5:0.13940001 6:0.044 7:0.241 #
-1 1:0.0022 2:0.15629999 3:0.094700001 4:0.40630001 5:0.219 6:0.036600001 7:0.72289997 #
6.1900000000000003907985046680551 1:0.0054000001 2:0.92860001 3:0.27360001 4:0.71429998 5:0.092299998 6:0.054900002 7:0.0241 #
-1 1:0.0066999998 2:0.9091 3:0.17110001 4:0.77270001 5:0.31310001 6:0.0403 7:0.0361 #
-1 1:0.00039999999 2:0.25 3:0.2282 4:0.16670001 5:0.2009 6:0.029300001 7:0.0482 #
-1 1:0.0080000004 2:0.88459998 3:0.21709999 4:0.42309999 5:0.13940001 6:0.036600001 7:0.1566 #
-1 1:0.0098000001 2:0.1111 3:0.257 4:0.33329999 5:0.1891 6:0.0403 7:0.0482 #
-1 1:0.0022 2:0.88889998 3:0.1138 4:0.41670001 5:0.078699999 6:0.029300001 7:0.3976 #
-1 1:0.0044999998 2:0.083300002 3:0.26480001 4:0.41670001 5:0.21359999 6:0.029300001 7:0.072300002 #
-1 1:0.0076000001 2:0.9375 3:0.1506 4:0.34380001 5:0.3493 6:0.029300001 7:0.5783 #
-1 1:0.040199999 2:0.83579999 3:0.1305 4:0.80599999 5:0.2362 6:0.080600001 7:0.241 #
6.1900000000000003907985046680551 1:0.0018 2:0.22220001 3:0.233 4:0.22220001 5:0.17739999 6:0.029300001 7:0.1084 #
-1 1:0.0049000001 2:0.1154 3:0.1296 4:0.0385 5:0.24250001 6:0.018300001 7:0.21690001 #
-1 1:0.025 2:0.84310001 3:0.205 4:0.86269999 5:0.30320001 6:0.0513 7:0.1446 #
-1 1:0.0093999999 2:0.18179999 3:0.2447 4:0.27270001 5:0.14659999 6:0.025599999 7:0.0241 #
-1 1:0.0035999999 2:0.94440001 3:0.1591 4:0.47220001 5:0.1611 6:0.033 7:0.241 #
-1 1:0.053100001 2:0.73079997 3:0.2492 4:0.84619999 5:0.26789999 6:0.073299997 7:0.084299996 #
-1 1:0.0018 2:0.22220001 3:0.1776 4:0 5:0.26879999 6:0.018300001 7:0.1928 #
-1 1:0.0317 2:0.8125 3:0.1543 4:0.8125 5:0.1937 6:0.065899998 7:0.060199998 #
-1 1:0.0121 2:0.5 3:0.33660001 4:0.5 5:0.1303 6:0.047600001 7:0.0482 #
-1 1:0.00039999999 2:0.85070002 3:0.076499999 4:0.403 5:0.13850001 6:0.033 7:0.59039998 #
-1 1:0.0057999999 2:0.1111 3:0.26769999 4:0.44440001 5:0.2579 6:0.033 7:0.1084 #
6.1900000000000003907985046680551 1:0.0076000001 2:0.21950001 3:0.2086 4:0.4878 5:0.26609999 6:0.0403 7:0.1807 #
-1 1:0.0057999999 2:0.93330002 3:0.177 4:0.53329998 5:0.17470001 6:0.033 7:0.084299996 #
-1 1:0.034400001 2:0.125 3:0.169 4:0.3125 5:0.2362 6:0.054900002 7:0.1084 #
-1 1:0.0022 2:0.9048 3:0.093999997 4:0.57139999 5:0.0814 6:0.0403 7:0.25299999 #
-1 1:0.0013 2:0.18179999 3:0.148 4:0.060600001 5:0.2462 6:0.025599999 7:0.28920001 #
-1 1:0.0254 2:0.68180001 3:0.3813 4:0.72729999 5:0.21269999 6:0.047600001 7:0.0482 #
-1 1:0.0013 2:0.1481 3:0.1199 4:0 5:0.3186 6:0.018300001 7:0.241 #
-1 1:0.0134 2:0.77420002 3:0.3193 4:0.8387 5:0.3511 6:0.047600001 7:0.060199998 #
-1 1:0.0044999998 2:0.86110002 3:0.1434 4:0.22220001 5:0.14839999 6:0.025599999 7:0.34940001 #
-1 1:0.0031000001 2:0.16670001 3:0.26969999 4:0.33329999 5:0.162 6:0.033 7:0.072300002 #
-1 1:0.048700001 2:0.375 3:0.31110001 4:0.6875 5:0.29049999 6:0.087899998 7:0.0241 #
-1 1:0.0031000001 2:0.88370001 3:0.0854 4:0.3953 5:0.1937 6:0.033 7:0.44580001 #
6.1900000000000003907985046680551 1:0.0057999999 2:0.25 3:0.1586 4:0.375 5:0.20900001 6:0.029300001 7:0.072300002 #
-1 1:0.0076000001 2:0.69999999 3:0.19499999 4:0.60000002 5:0.054299999 6:0.054900002 7:0.1084 #
-1 1:0.0080000004 2:0.037 3:0.072800003 4:0.1111 5:0.26969999 6:0.029300001 7:0.28920001 #
-1 1:0.0057999999 2:0.81819999 3:0.2253 4:0.81819999 5:0.28049999 6:0.0403 7:0.0482 #
-1 1:0.017000001 2:0.66670001 3:0.3355 4:0.66670001 5:0.1041 6:0.047600001 7:0.0361 #
6.1900000000000003907985046680551 1:0.018300001 2:0.42860001 3:0.084700003 4:0.5 5:0.24339999 6:0.0513 7:0.1446 #
-1 1:0.00089999998 2:0.15000001 3:0.1058 4:0.1 5:0.1357 6:0.025599999 7:0.1566 #
-1 1:0.020099999 2:0.89160001 3:0.1664 4:0.83130002 5:0.60900003 6:0.054900002 7:0.1084 #
-1 1:0.0165 2:0.41670001 3:0.2228 4:0.5 5:0.075099997 6:0.0403 7:0.060199998 #
-1 1:0.0103 2:0.66670001 3:0.37040001 4:0.77780002 5:0.191 6:0.033 7:0.0361 #
-1 1:0.0116 2:0.69999999 3:0.34439999 4:0.69999999 5:0.1873 6:0.047600001 7:0.0241 #
-1 1:0.0027000001 2:0.085699998 3:0.1578 4:0.085699998 5:0.27959999 6:0.022 7:0.25299999 #
6.1900000000000003907985046680551 1:0.0022 2:0.41670001 3:0.1032 4:0.33329999 5:0.1973 6:0.025599999 7:0.13249999 #
-1 1:0.029899999 2:0.71429998 3:0.28870001 4:0.80949998 5:0.17470001 6:0.065899998 7:0.060199998 #
-1 1:0.0152 2:0.75 3:0.2617 4:0.6875 5:0.1068 6:0.054900002 7:0.0361 #
-1 1:0.0013 2:0.078100003 3:0.1065 4:0.2344 5:0.419 6:0.029300001 7:0.68669999 #
-1 1:0.0054000001 2:0.0638 3:0.16329999 4:0.1277 5:0.46430001 6:0.025599999 7:0.3373 #
-1 1:0.036200002 2:0.73680001 3:0.23450001 4:0.7895 5:0.1656 6:0.0623 7:0.0361 #
6.1900000000000003907985046680551 1:0.0049000001 2:0.3125 3:0.186 4:0.3125 5:0.20630001 6:0.033 7:0.1928 #
-1 1:0 2:0.72729999 3:0.228 4:0.63639998 5:0.079599999 6:0.033 7:0.0361 #
-1 1:0.0063 2:0.56099999 3:0.1418 4:0.21950001 5:0.1041 6:0.029300001 7:0.37349999 #
-1 1:0.0263 2:0.67739999 3:0.35569999 4:0.74190003 5:0.5068 6:0.044 7:0.0482 #
-1 1:0.0049000001 2:0.73329997 3:0.2744 4:0.46669999 5:0.1005 6:0.033 7:0.084299996 #
-1 1:0.0134 2:0.1053 3:0.25490001 4:0.36840001 5:0.2145 6:0.033 7:0.0964 #
-1 1:0.0076000001 2:0.85369998 3:0.213 4:0.7561 5:0.171 6:0.047600001 7:0.1566 #
-1 1:0 2:0.21430001 3:0.1266 4:0 5:0.2561 6:0.018300001 7:0.1566 #
-1 1:0.00039999999 2:0.27270001 3:0.21349999 4:0.1364 5:0.1339 6:0.025599999 7:0.1566 #
6.1900000000000003907985046680551 1:0.0013 2:0.77139997 3:0.17039999 4:0.71429998 5:0.24070001 6:0.0403 7:0.21690001 #
-1 1:0.037099998 2:0.84210002 3:0.0561 4:0.84210002 5:0.1955 6:0.073299997 7:0.21690001 #
-1 1:0.0018 2:0.2 3:0.2078 4:0.2 5:0.14030001 6:0.025599999 7:0.0964 #
-1 1:0.018300001 2:0.85710001 3:0.25279999 4:0.6857 5:0.23710001 6:0.069600001 7:0.084299996 #
-1 1:0.017899999 2:0.63889998 3:0.31580001 4:0.75 5:0.1683 6:0.0623 7:0.13249999 #
-1 1:0.016100001 2:0.7317 3:0.29300001 4:0.80489999 5:0.23980001 6:0.0513 7:0.0482 #
-1 1:0.0165 2:0.40000001 3:0.32550001 4:0.40000001 5:0.1584 6:0.044 7:0.084299996 #
6.1900000000000003907985046680551 1:0.0027000001 2:0.22220001 3:0.36149999 4:0.22220001 5:0.1059 6:0.0147 7:0.084299996 #
-1 1:0.0112 2:0.84850001 3:0.1182 4:0.75760001 5:0.31310001 6:0.0513 7:0.32530001 #
-1 1:0.00089999998 2:0.16670001 3:0.1875 4:0.16670001 5:0.13850001 6:0.018300001 7:0.0964 #
-1 1:0.034400001 2:0.8125 3:0.21600001 4:0.75 5:0.17919999 6:0.084200002 7:0.072300002 #
-1 1:0.0143 2:0.29789999 3:0.21780001 4:0.65960002 5:0.1095 6:0.0403 7:0.16869999 #
-1 1:0.0013 2:0.67439997 3:0.116 4:0.1163 5:0.1376 6:0.025599999 7:0.32530001 #
-1 1:0.035300002 2:0.4242 3:0.3326 4:0.69700003 5:0.2299 6:0.0513 7:0.060199998 #
-1 1:0.0049000001 2:0.16670001 3:0.1531 4:0.16670001 5:0.1584 6:0.022 7:0.0964 #
6.1900000000000003907985046680551 1:0.0103 2:0.79689997 3:0.1706 4:0.64060003 5:0.2362 6:0.044 7:0.44580001 #
-1 1:0.025900001 2:0.69230002 3:0.212 4:0.80769998 5:0.2471 6:0.069600001 7:0.0964 #
6.1900000000000003907985046680551 1:0.054900002 2:0.80769998 3:0.3637 4:0.88459998 5:0.2226 6:0.076899998 7:0.012 #
-1 1:0.0027000001 2:0.77780002 3:0.2499 4:0.44440001 5:0.1176 6:0.029300001 7:0.0964 #
-1 1:0.0080000004 2:0.042599998 3:0.16599999 4:0.1489 5:0.30320001 6:0.025599999 7:0.32530001 #
6.1900000000000003907985046680551 1:0.0429 2:0.9375 3:0.2219 4:0.875 5:0.063299999 6:0.1136 7:0.060199998 #
-1 1:0.0147 2:0.71429998 3:0.2142 4:0.88569999 5:0.20810001 6:0.054900002 7:0.084299996 #
-1 1:0.021 2:0.70829999 3:0.2525 4:0.79170001 5:0.1077 6:0.054900002 7:0.060199998 #
6.1900000000000003907985046680551 1:0.041099999 2:0.96149999 3:0.32049999 4:0.92309999 5:0.1357 6:0.080600001 7:0.084299996 #
-1 1:0.0088999998 2:0.0625 3:0.1067 4:0.125 5:0.20630001 6:0.022 7:0.1566 #
-1 1:0.0143 2:0.74290001 3:0.24699999 4:0.82859999 5:0.1919 6:0.047600001 7:0.0482 #
-1 1:0.0272 2:0.57690001 3:0.3635 4:0.69230002 5:0.17380001 6:0.058600001 7:0.0482 #
6.1900000000000003907985046680551 1:0.0121 2:0.5 3:0.1708 4:0.30950001 5:0.31220001 6:0.033 7:0.2289 #
-1 1:0.00089999998 2:0.5 3:0.15270001 4:0.027799999 5:0.20720001 6:0.022 7:0.3373 #
6.1900000000000003907985046680551 1:0.0027000001 2:0.45449999 3:0.1902 4:0.18179999 5:0.1276 6:0.025599999 7:0.21690001 #
-1 1:0.0473 2:0.64060003 3:0.31009999 4:0.84380001 5:0.27779999 6:0.069600001 7:0.0964 #
-1 1:0.0165 2:0.75 3:0.1999 4:0.75 5:0.114 6:0.058600001 7:0.0241 #
-1 1:0.018300001 2:0.119 3:0.14030001 4:0.1429 5:0.2633 6:0.029300001 7:0.32530001 #
-1 1:0.022299999 2:0.75 3:0.2242 4:0.75 5:0.1276 6:0.047600001 7:0.0361 #
-1 1:0.016100001 2:0.68419999 3:0.3048 4:0.63160002 5:0.1692 6:0.044 7:0.072300002 #
-1 1:0.0093999999 2:0.1111 3:0.1557 4:0.18520001 5:0.17470001 6:0.036600001 7:0.1807 #
-1 1:0.0219 2:0.77780002 3:0.184 4:0.83329999 5:0.2615 6:0.073299997 7:0.13249999 #
-1 1:0.0031000001 2:0.44440001 3:0.36939999 4:0.33329999 5:0.23800001 6:0.029300001 7:0.084299996 #
-1 1:0.0057999999 2:0.61449999 3:0.099200003 4:0.4578 5:0.062399998 6:0.033 7:0.55419999 #
-1 1:0.0112 2:0.44440001 3:0.33270001 4:0.44440001 5:0.17380001 6:0.0403 7:0.060199998 #
-1 1:0.0085000005 2:0.79070002 3:0.085299999 4:0.7209 5:0.21089999 6:0.047600001 7:0.4578 #
-1 1:0.0040000002 2:0.083300002 3:0.1432 4:0.083300002 5:0.26699999 6:0.018300001 7:0.1205 #
-1 1:0.0272 2:0.66670001 3:0.31130001 4:0.79170001 5:0.2018 6:0.0623 7:0.072300002 #
-1 1:0.0103 2:0.60000002 3:0.3308 4:0.60000002 5:0.1294 6:0.047600001 7:0.060199998 #
-1 1:0.0018 2:0.2651 3:0.090499997 4:0.32530001 5:0.1692 6:0.029300001 7:0.68669999 #
-1 1:0.0348 2:0.77780002 3:0.2243 4:0.77780002 5:0.27959999 6:0.065899998 7:0.0241 #
-1 1:0.0013 2:0.83329999 3:0.23379999 4:0.5 5:0.2018 6:0.044 7:0.060199998 #
-1 1:0.0035999999 2:0.058800001 3:0.18539999 4:0.1176 5:0.37009999 6:0.025599999 7:0.3012 #
-1 1:0.0040000002 2:0.79170001 3:0.204 4:0.75 5:0.1348 6:0.047600001 7:0.1205 #
-1 1:0.0348 2:0.6875 3:0.32730001 4:0.75 5:0.2317 6:0.058600001 7:0.084299996 #
-1 1:0 2:0.16670001 3:0.1505 4:0.125 5:0.14300001 6:0.025599999 7:0.25299999 #
-1 1:0.023700001 2:0.66670001 3:0.26539999 4:0.80000001 5:0.14659999 6:0.044 7:0.012 #
-1 1:0 2:0.66670001 3:0.2335 4:0.40000001 5:0.1023 6:0.033 7:0.1205 #
-1 1:0.041099999 2:0.70829999 3:0.32890001 4:0.625 5:0.26429999 6:0.0513 7:0.060199998 #
-1 1:0.0040000002 2:0.125 3:0.0568 4:0.125 5:0.1946 6:0.029300001 7:0.0964 #
-1 1:0.0085000005 2:0.3529 3:0.2631 4:0.52939999 5:0.1294 6:0.033 7:0.072300002 #
-1 1:0.0049000001 2:0.56720001 3:0.0814 4:0.089599997 5:0.36559999 6:0.022 7:0.54220003 #
-1 1:0.0473 2:0.6279 3:0.2322 4:0.90700001 5:0.43349999 6:0.065899998 7:0.0482 #
-1 1:0.0049000001 2:0.54549998 3:0.27129999 4:0.5909 5:0.080499999 6:0.036600001 7:0.084299996 #
-1 1:0.0035999999 2:0.4375 3:0.27410001 4:0.1875 5:0.1855 6:0.029300001 7:0.1084 #
-1 1:0.0254 2:0.80949998 3:0.22660001 4:0.69050002 5:0.1593 6:0.0513 7:0.1084 #
-1 1:0.0080000004 2:0.090899996 3:0.1424 4:0.1364 5:0.2145 6:0.029300001 7:0.1205 #
-1 1:0.0085000005 2:0.8387 3:0.25940001 4:0.70969999 5:0.2344 6:0.0403 7:0.13249999 #
-1 1:0.0098000001 2:0.33329999 3:0.24609999 4:0.60000002 5:0.074199997 6:0.0403 7:0.1084 #
-1 1:0.0031000001 2:0.58329999 3:0.1648 4:0.055599999 5:0.2036 6:0.022 7:0.31330001 #
-1 1:0.058499999 2:0.62959999 3:0.25260001 4:0.81480002 5:0.2235 6:0.084200002 7:0.0964 #
-1 1:0.0040000002 2:0.25 3:0.2335 4:0.0625 5:0.29319999 6:0.025599999 7:0.1566 #
-1 1:0.0035999999 2:0.75 3:0.2137 4:0.75 5:0.1557 6:0.033 7:0.0241 #
-1 1:0.026799999 2:0.72219998 3:0.266 4:0.69440001 5:0.1529 6:0.058600001 7:0.1084 #
-1 1:0.021400001 2:0.7234 3:0.2406 4:0.82980001 5:0.31400001 6:0.065899998 7:0.1446 #
-1 1:0.0093999999 2:0.5 3:0.2457 4:0.58329999 5:0.1041 6:0.036600001 7:0.0361 #
-1 1:0.0054000001 2:0.21690001 3:0.0933 4:0.38550001 5:0.1656 6:0.033 7:0.61449999 #
-1 1:0.0165 2:0.85710001 3:0.1218 4:0.71429998 5:0.2163 6:0.036600001 7:0.012 #
-1 1:0 2:0.66670001 3:0.2111 4:0.16670001 5:0.1955 6:0.025599999 7:0.1446 #
-1 1:0.0156 2:0.69230002 3:0.2726 4:0.73079997 5:0.1891 6:0.058600001 7:0.1084 #
6.1900000000000003907985046680551 1:0.00089999998 2:0.28569999 3:0.084899999 4:0.42860001 5:0.114 6:0.025599999 7:0.060199998 #
-1 1:0.0049000001 2:0.083300002 3:0.1622 4:0.16670001 5:0.2145 6:0.029300001 7:0.241 #
-1 1:0.0013 2:0.75 3:0.2545 4:0.75 5:0.1837 6:0.0403 7:0.0361 #
-1 1:0.0035999999 2:0.88569999 3:0.1758 4:0.42860001 5:0.1629 6:0.036600001 7:0.21690001 #
-1 1:0.0035999999 2:0.047600001 3:0.17569999 4:0.28569999 5:0.30860001 6:0.033 7:0.13249999 #
6.1900000000000003907985046680551 1:0.0022 2:0.80000001 3:0.0889 4:0.55000001 5:0.083300002 6:0.044 7:0.20479999 #
-1 1:0.0103 2:0.78430003 3:0.18629999 4:0.7647 5:0.2163 6:0.0403 7:0.2771 #
6.1900000000000003907985046680551 1:0.0063 2:0.33329999 3:0.2101 4:0.33329999 5:0.24339999 6:0.033 7:0.072300002 #
-1 1:0.0093999999 2:0.31819999 3:0.16339999 4:0.090899996 5:0.26969999 6:0.025599999 7:0.072300002 #
-1 1:0.0103 2:0.72549999 3:0.19660001 4:0.8039 5:0.1973 6:0.044 7:0.1807 #
-1 1:0.0121 2:0.58329999 3:0.30320001 4:0.75 5:0.1683 6:0.047600001 7:0.060199998 #
-1 1:0.0063 2:0.45829999 3:0.1631 4:0.083300002 5:0.2018 6:0.025599999 7:0.2289 #
-1 1:0.057100002 2:0.71640003 3:0.19769999 4:0.83579999 5:0.3493 6:0.087899998 7:0.084299996 #
-1 1:0.0022 2:0.63639998 3:0.30360001 4:0.81819999 5:0.2615 6:0.0403 7:0.0964 #
-1 1:0.00039999999 2:0.33329999 3:0.1285 4:0.066699997 5:0.1674 6:0.018300001 7:0.16869999 #
-1 1:0 2:0.53850001 3:0.16410001 4:0.38460001 5:0.075099997 6:0.029300001 7:0.0964 #
6.1900000000000003907985046680551 1:0.0035999999 2:0.33329999 3:0.26019999 4:0.33329999 5:0.24250001 6:0.036600001 7:0.0361 #
-1 1:0.0031000001 2:0.1429 3:0.1849 4:0.5 5:0.23710001 6:0.033 7:0.072300002 #
-1 1:0.0098000001 2:0.88459998 3:0.1682 4:0.61540002 5:0.1837 6:0.047600001 7:0.1566 #
-1 1:0.0044999998 2:0.1935 3:0.1851 4:0.38710001 5:0.086000003 6:0.029300001 7:0.2651 #
-1 1:0.00039999999 2:0.82349998 3:0.1935 4:0.68629998 5:0.1946 6:0.036600001 7:0.20479999 #
-1 1:0.018300001 2:0.75 3:0.1435 4:0.77780002 5:0.2606 6:0.069600001 7:0.28920001 #
-1 1:0.0080000004 2:0.30000001 3:0.29710001 4:0.30000001 5:0.1321 6:0.033 7:0.060199998 #
-1 1:0.0088999998 2:0.875 3:0.1657 4:0.51560003 5:0.3339 6:0.0403 7:0.46990001 #
-1 1:0.0152 2:0.44440001 3:0.3186 4:0.55559999 5:0.1566 6:0.047600001 7:0.0241 #
-1 1:0.0022 2:0.65670002 3:0.062399998 4:0.3881 5:0.2353 6:0.033 7:0.69880003 #
6.1900000000000003907985046680551 1:0.032600001 2:0.42860001 3:0.3906 4:0.71429998 5:0.23800001 6:0.073299997 7:0.012 #
-1 1:0.0152 2:0.625 3:0.23010001 4:0.625 5:0.076899998 6:0.0403 7:0.0361 #
-1 1:0.0013 2:0.38890001 3:0.17839999 4:0.055599999 5:0.2181 6:0.018300001 7:0.1807 #
-1 1:0.0241 2:0.75 3:0.1698 4:0.80000001 5:0.2525 6:0.058600001 7:0.060199998 #
-1 1:0.0063 2:0.25 3:0.26210001 4:0.25 5:0.1837 6:0.025599999 7:0.0964 #
-1 1:0.0116 2:0.75760001 3:0.1789 4:0.78789997 5:0.29229999 6:0.058600001 7:0.13249999 #
-1 1:0 2:0.66670001 3:0.19760001 4:0.2121 5:0.1529 6:0.029300001 7:0.1928 #
6.1900000000000003907985046680551 1:0.0116 2:0.375 3:0.2044 4:0.58329999 5:0.23710001 6:0.0513 7:0.1566 #
-1 1:0.040600002 2:0.44440001 3:0.28780001 4:0.74070001 5:0.2217 6:0.069600001 7:0.060199998 #
6.1900000000000003907985046680551 1:0.037099998 2:0.8125 3:0.46430001 4:0.9375 5:0.26969999 6:0.073299997 7:0.0241 #
-1 1:0 2:0.74419999 3:0.1003 4:0.1628 5:0.2163 6:0.025599999 7:0.38550001 #
-1 1:0.020099999 2:0.58539999 3:0.27309999 4:0.82929999 5:0.3267 6:0.054900002 7:0.060199998 #
-1 1:0.0044999998 2:0.77270001 3:0.2432 4:0.5 5:0.1077 6:0.033 7:0.1084 #
-1 1:0.0022 2:0.45449999 3:0.2229 4:0.72729999 5:0.1113 6:0.033 7:0.060199998 #
-1 1:0 2:0.22579999 3:0.2203 4:0.1935 5:0.29139999 6:0.025599999 7:0.1928 #
6.1900000000000003907985046680551 1:0.0057999999 2:0.33329999 3:0.25220001 4:0.66670001 5:0.20999999 6:0.033 7:0.084299996 #
-1 1:0.0071 2:0.18179999 3:0.1807 4:0.5 5:0.2507 6:0.036600001 7:0.0241 #
-1 1:0.0121 2:0.76190001 3:0.19679999 4:0.66670001 5:0.1032 6:0.0513 7:0.1446 #
-1 1:0.00039999999 2:0.64289999 3:0.1348 4:0.071400002 5:0.27239999 6:0.022 7:0.13249999 #
-1 1:0.032600001 2:0.51059997 3:0.30739999 4:0.87230003 5:0.36379999 6:0.073299997 7:0.084299996 #
6.1900000000000003907985046680551 1:0.0451 2:0.88889998 3:0.4515 4:0.88889998 5:0.3312 6:0.076899998 7:0.012 #
-1 1:0.00089999998 2:0.55809999 3:0.097999997 4:0.13950001 5:0.17649999 6:0.025599999 7:0.3976 #
-1 1:0.022299999 2:0.68180001 3:0.1652 4:0.81819999 5:0.2009 6:0.047600001 7:0.060199998 #
-1 1:0 2:0.75 3:0.19499999 4:0.625 5:0.13850001 6:0.036600001 7:0.060199998 #
6.1900000000000003907985046680551 1:0.0035999999 2:0.49020001 3:0.1785 4:0.3725 5:0.2172 6:0.029300001 7:0.3373 #
-1 1:0.0018 2:0.2439 3:0.14740001 4:0.122 5:0.2009 6:0.025599999 7:0.34940001 #
-1 1:0.025 2:0.6875 3:0.2404 4:0.75 5:0.27509999 6:0.0513 7:0.0241 #
6.1900000000000003907985046680551 1:0.0022 2:0.51429999 3:0.17659999 4:0.40000001 5:0.27239999 6:0.025599999 7:0.1807 #
-1 1:0.0018 2:0.55559999 3:0.204 4:0.66670001 5:0.094099998 6:0.047600001 7:0.060199998 #
-1 1:0.0066999998 2:0.42860001 3:0.16240001 4:0.095200002 5:0.2145 6:0.025599999 7:0.1446 #
-1 1:0.0165 2:0.76120001 3:0.15270001 4:0.74629998 5:0.2462 6:0.069600001 7:0.1446 #
-1 1:0.0174 2:0.58329999 3:0.2834 4:0.58329999 5:0.15109999 6:0.0513 7:0.084299996 #
6.1900000000000003907985046680551 1:0.0076000001 2:0.37040001 3:0.1506 4:0.51849997 5:0.17290001 6:0.047600001 7:0.20479999 #
-1 1:0 2:0 3:0.085600004 4:0.2308 5:0.33759999 6:0.029300001 7:0.3012 #
-1 1:0.028100001 2:0.85939997 3:0.2419 4:0.625 5:0.3204 6:0.044 7:0.1928 #
-1 1:0.0098000001 2:0.70590001 3:0.223 4:0.70590001 5:0.17739999 6:0.0403 7:0.1205 #
-1 1:0.0112 2:0.72729999 3:0.2131 4:0.54549998 5:0.14839999 6:0.0403 7:0.1566 #
-1 1:0.0112 2:0.5 3:0.30790001 4:0.5 5:0.1357 6:0.0403 7:0.0241 #
-1 1:0 2:0.79170001 3:0.1186 4:0.29170001 5:0.14480001 6:0.029300001 7:0.28920001 #
-1 1:0.0018 2:0.16670001 3:0.2331 4:0.5 5:0.28690001 6:0.029300001 7:0.1205 #
-1 1:0 2:0.85189998 3:0.1331 4:0.29629999 5:0.1548 6:0.036600001 7:0.2289 #
-1 1:0.0196 2:0.1875 3:0.2068 4:0.5 5:0.21269999 6:0.047600001 7:0.072300002 #
-1 1:0.0027000001 2:0.7895 3:0.069399998 4:0.63160002 5:0.13940001 6:0.044 7:0.20479999 #
-1 1:0.0085000005 2:0.25 3:0.25170001 4:0.25 5:0.24339999 6:0.033 7:0.0482 #
-1 1:0.026799999 2:0.61540002 3:0.28619999 4:0.57690001 5:0.1176 6:0.044 7:0.072300002 #
-1 1:0 2:0.46509999 3:0.0933 4:0.093000002 5:0.17739999 6:0.025599999 7:0.40959999 #
-1 1:0.0080000004 2:0.61540002 3:0.2298 4:0.76920003 5:0.18279999 6:0.0403 7:0.072300002 #
-1 1:0.0057999999 2:0.2326 3:0.1007 4:0.046500001 5:0.2462 6:0.025599999 7:0.37349999 #
6.1900000000000003907985046680551 1:0.043299999 2:0.76920003 3:0.28889999 4:0.92309999 5:0.24429999 6:0.084200002 7:0.060199998 #
-1 1:0.0348 2:0.71079999 3:0.1645 4:0.87949997 5:0.64160001 6:0.065899998 7:0.1205 #
-1 1:0.016100001 2:0.47620001 3:0.1979 4:0.76190001 5:0.114 6:0.054900002 7:0.13249999 #
-1 1:0.0022 2:0.66670001 3:0.19509999 4:0.44440001 5:0.124 6:0.044 7:0.072300002 #
-1 1:0.0076000001 2:0.16670001 3:0.16500001 4:0.25 5:0.1348 6:0.029300001 7:0.1084 #
-1 1:0.035300002 2:0.69050002 3:0.1574 4:0.80949998 5:0.2208 6:0.065899998 7:0.2771 #
-1 1:0.0147 2:0.78789997 3:0.2087 4:0.60610002 5:0.17829999 6:0.044 7:0.16869999 #
-1 1:0.022299999 2:0.3125 3:0.1758 4:0.3125 5:0.1348 6:0.044 7:0.0964 #
6.1900000000000003907985046680551 1:0.0080000004 2:0.45449999 3:0.43130001 4:0.18179999 5:0.1303 6:0.025599999 7:0.0241 #
-1 1:0.0035999999 2:0.63639998 3:0.1806 4:0.72729999 5:0.162 6:0.036600001 7:0.0361 #
-1 1:0.0013 2:0.39390001 3:0.1657 4:0.090899996 5:0.1928 6:0.025599999 7:0.25299999 #
-1 1:0.0040000002 2:0.71429998 3:0.086000003 4:0.85710001 5:0.31400001 6:0.036600001 7:0.0482 #
-1 1:0.0035999999 2:0.46669999 3:0.22319999 4:0.66670001 5:0.091399997 6:0.0403 7:0.1446 #
-1 1:0.0031000001 2:0.33329999 3:0.3405 4:0.33329999 5:0.31580001 6:0.018300001 7:0.0964 #
6.1900000000000003907985046680551 1:0.017899999 2:0.4815 3:0.098499998 4:0.59259999 5:0.1873 6:0.058600001 7:0.2651 #
6.1900000000000003907985046680551 1:0.0035999999 2:0.40000001 3:0.2018 4:0.40000001 5:0.2362 6:0.033 7:0.0361 #
-1 1:0.0049000001 2:0.61900002 3:0.15700001 4:0.66670001 5:0.1023 6:0.044 7:0.16869999 #
-1 1:0.0035999999 2:0.2 3:0.1672 4:0.2 5:0.20999999 6:0.025599999 7:0.060199998 #
-1 1:0.00039999999 2:0.7647 3:0.18009999 4:0.7647 5:0.30590001 6:0.0403 7:0.1807 #
6.1900000000000003907985046680551 1:0.0112 2:0.33329999 3:0.33939999 4:0.33329999 5:0.1701 6:0.029300001 7:0.0241 #
-1 1:0.0027000001 2:0.57690001 3:0.19859999 4:0.46149999 5:0.069700003 6:0.036600001 7:0.1205 #
-1 1:0.0071 2:0.25580001 3:0.1125 4:0.76740003 5:0.18009999 6:0.0513 7:0.3373 #
-1 1:0.0031000001 2:0.66670001 3:0.25740001 4:0.55559999 5:0.1891 6:0.047600001 7:0.1205 #
-1 1:0.00089999998 2:0.42109999 3:0.081200004 4:0.31580001 5:0.092299998 6:0.033 7:0.1928 #
-1 1:0.030400001 2:0.625 3:0.28529999 4:0.82810003 5:0.4127 6:0.069600001 7:0.1084 #
-1 1:0.0031000001 2:0.66670001 3:0.20919999 4:0.75 5:0.2027 6:0.036600001 7:0.072300002 #
-1 1:0.031300001 2:0.58060002 3:0.28389999 4:0.80650002 5:0.28960001 6:0.047600001 7:0.0964 #
-1 1:0.0066999998 2:0.7313 3:0.086999997 4:0.14929999 5:0.2326 6:0.022 7:0.46990001 #
-1 1:0.0277 2:0.54549998 3:0.2604 4:0.81819999 5:0.27509999 6:0.069600001 7:0.0964 #
-1 1:0.046 2:0.53850001 3:0.33629999 4:0.69230002 5:0.28240001 6:0.0623 7:0.0361 #
-1 1:0.00089999998 2:0.73809999 3:0.1364 4:0.26190001 5:0.1258 6:0.029300001 7:0.36140001 #
-1 1:0.0125 2:0.42860001 3:0.1936 4:0.78570002 5:0.20900001 6:0.044 7:0.0361 #
-1 1:0.00089999998 2:0.7561 3:0.1543 4:0.29269999 5:0.1683 6:0.033 7:0.3373 #
-1 1:0.0174 2:0.47060001 3:0.28940001 4:0.58819997 5:0.1674 6:0.036600001 7:0.0361 #
-1 1:0.0116 2:0.61900002 3:0.2058 4:0.71429998 5:0.1231 6:0.0513 7:0.1205 #
-1 1:0.00039999999 2:0.375 3:0.1256 4:0.375 5:0.096799999 6:0.029300001 7:0.0482 #
-1 1:0.0031000001 2:0.80650002 3:0.24160001 4:0.67739999 5:0.3321 6:0.0403 7:0.1566 #
6.1900000000000003907985046680551 1:0 2:0.40000001 3:0.2084 4:0.30000001 5:0.080499999 6:0.029300001 7:0.0964 #
-1 1:0.0129 2:0.66670001 3:0.30399999 4:0.61900002 5:0.2172 6:0.044 7:0.0241 #
6.1900000000000003907985046680551 1:0.0129 2:0.72729999 3:0.13410001 4:0.63639998 5:0.2489 6:0.036600001 7:0.072300002 #
-1 1:0.0044999998 2:0.27450001 3:0.093199998 4:0.64709997 5:0.2045 6:0.036600001 7:0.59039998 #
-1 1:0.030400001 2:0.75 3:0.1673 4:0.625 5:0.2462 6:0.047600001 7:0.012 #
-1 1:0.0071 2:0.5 3:0.22939999 4:0.5 5:0.14030001 6:0.036600001 7:0.0361 #
6.1900000000000003907985046680551 1:0.0027000001 2:0.68629998 3:0.17569999 4:0.74510002 5:0.17470001 6:0.0403 7:0.34940001 #
-1 1:0.0044999998 2:0.58329999 3:0.1816 4:0.625 5:0.083300002 6:0.047600001 7:0.20479999 #
-1 1:0.0013 2:0.36359999 3:0.20479999 4:0.36359999 5:0.1303 6:0.025599999 7:0.084299996 #
-1 1:0.0121 2:0.25929999 3:0.19499999 4:0.40740001 5:0.1529 6:0.044 7:0.1205 #
-1 1:0.00089999998 2:0.77270001 3:0.1211 4:0.72729999 5:0.2552 6:0.0403 7:0.1928 #
-1 1:0.038400002 2:0.65710002 3:0.2016 4:0.80000001 5:0.2498 6:0.091600001 7:0.16869999 #
-1 1:0.0088999998 2:0.55559999 3:0.3405 4:0.55559999 5:0.248 6:0.047600001 7:0.0482 #
-1 1:0.0143 2:0.63160002 3:0.1934 4:0.57889998 5:0.14839999 6:0.044 7:0.0482 #
-1 1:0.0098000001 2:0.125 3:0.1621 4:0.1875 5:0.2181 6:0.0403 7:0.1205 #
-1 1:0.0174 2:0.74629998 3:0.1586 4:0.76120001 5:0.24519999 6:0.069600001 7:0.13249999 #
-1 1:0.0143 2:0.66670001 3:0.2297 4:0.66670001 5:0.20999999 6:0.0403 7:0.0241 #
-1 1:0.032600001 2:0.63889998 3:0.25080001 4:0.66670001 5:0.17290001 6:0.058600001 7:0.1205 #
-1 1:0.0044999998 2:0.16670001 3:0.2016 4:0.16670001 5:0.19 6:0.025599999 7:0.1205 #
-1 1:0.0057999999 2:0.65710002 3:0.1772 4:0.80000001 5:0.2253 6:0.047600001 7:0.1566 #
-1 1:0.0088999998 2:0.70969999 3:0.27869999 4:0.61290002 5:0.2262 6:0.036600001 7:0.1084 #
-1 1:0.00039999999 2:0.46149999 3:0.1857 4:0.65380001 5:0.1176 6:0.0513 7:0.13249999 #
-1 1:0.0143 2:0.68419999 3:0.18799999 4:0.68419999 5:0.14839999 6:0.044 7:0.060199998 #
-1 1:0.0116 2:0.20829999 3:0.1912 4:0.25 5:0.1882 6:0.029300001 7:0.1807 #
-1 1:0.0063 2:0.75 3:0.1541 4:0.6875 5:0.2281 6:0.044 7:0.072300002 #
-1 1:0.0040000002 2:0.46669999 3:0.2491 4:0.40000001 5:0.1629 6:0.033 7:0.0241 #
-1 1:0.0049000001 2:0.75760001 3:0.23549999 4:0.63639998 5:0.21179999 6:0.044 7:0.1205 #
-1 1:0.0031000001 2:0.73329997 3:0.21160001 4:0.46669999 5:0.2009 6:0.033 7:0.072300002 #
-1 1:0.0022 2:0.1212 3:0.14489999 4:0.1212 5:0.2262 6:0.025599999 7:0.241 #
6.1900000000000003907985046680551 1:0.00039999999 2:0.69700003 3:0.1441 4:0.63639998 5:0.1041 6:0.044 7:0.25299999 #
-1 1:0.0076000001 2:0.75 3:0.2007 4:0.70829999 5:0.229 6:0.047600001 7:0.1446 #
-1 1:0.0063 2:0.60000002 3:0.20389999 4:0.60000002 5:0.1294 6:0.033 7:0.1084 #
-1 1:0.0049000001 2:0.33329999 3:0.3188 4:0.55559999 5:0.2271 6:0.033 7:0.060199998 #
-1 1:0.0035999999 2:0.78719997 3:0.18719999 4:0.59570003 5:0.1964 6:0.036600001 7:0.2289 #
-1 1:0.00039999999 2:0.16670001 3:0.1485 4:0.16670001 5:0.2145 6:0.025599999 7:0.0964 #
-1 1:0.0103 2:0.5909 3:0.2173 4:0.77270001 5:0.18189999 6:0.047600001 7:0.1446 #
-1 1:0.00039999999 2:0.60000002 3:0.2034 4:0.33329999 5:0.1276 6:0.033 7:0.1566 #
-1 1:0.0174 2:0.36359999 3:0.31830001 4:0.63639998 5:0.2525 6:0.0403 7:0.060199998 #
6.1900000000000003907985046680551 1:0.0018 2:0.78570002 3:0.1407 4:0.42860001 5:0.1122 6:0.029300001 7:0.1205 #
-1 1:0.0040000002 2:0.75 3:0.1649 4:0.41670001 5:0.13850001 6:0.036600001 7:0.21690001 #
6.1900000000000003907985046680551 1:0.0121 2:0.45449999 3:0.1741 4:0.45449999 5:0.1683 6:0.0403 7:0.1566 #
-1 1:0.0228 2:0.47620001 3:0.2057 4:0.76190001 5:0.2326 6:0.058600001 7:0.0964 #
-1 1:0.0152 2:0.625 3:0.15700001 4:0.5 5:0.124 6:0.058600001 7:0.0482 #
6.1900000000000003907985046680551 1:0.00089999998 2:0.625 3:0.1083 4:0.625 5:0.1656 6:0.033 7:0.0964 #
-1 1:0.0013 2:0.69440001 3:0.1159 4:0.5 5:0.088699996 6:0.036600001 7:0.37349999 #
-1 1:0.017899999 2:0.4375 3:0.2403 4:0.625 5:0.20999999 6:0.0513 7:0.0482 #
-1 1:0.0088999998 2:0.66670001 3:0.1229 4:0.66670001 5:0.19 6:0.047600001 7:0.0482 #
-1 1:0.0085000005 2:0.52630001 3:0.1574 4:0.52630001 5:0.1213 6:0.044 7:0.084299996 #
-1 1:0.0112 2:0.24240001 3:0.1679 4:0.36359999 5:0.17560001 6:0.036600001 7:0.1807 #
-1 1:0.024599999 2:0.69230002 3:0.2615 4:0.69230002 5:0.37380001 6:0.054900002 7:0.0241 #
-1 1:0.0085000005 2:0.66670001 3:0.2216 4:0.66670001 5:0.1991 6:0.047600001 7:0.084299996 #
-1 1:0.0107 2:0.53659999 3:0.1802 4:0.2439 5:0.0977 6:0.033 7:0.25299999 #
-1 1:0 2:0.53490001 3:0.16150001 4:0.81400001 5:0.1937 6:0.0513 7:0.1084 #
-1 1:0.0022 2:0.52380002 3:0.21789999 4:0.33329999 5:0.1584 6:0.033 7:0.084299996 #
-1 1:0.0093999999 2:0.68089998 3:0.1788 4:0.68089998 5:0.18189999 6:0.0403 7:0.25299999 #
-1 1:0.0022 2:0.40000001 3:0.2438 4:0.40000001 5:0.14210001 6:0.033 7:0.060199998 #
-1 1:0.0098000001 2:0.65380001 3:0.1829 4:0.5 5:0.1213 6:0.036600001 7:0.1446 #
-1 1:0.0027000001 2:0.36359999 3:0.31650001 4:0.54549998 5:0.21359999 6:0.029300001 7:0.072300002 #
-1 1:0.0103 2:0.63160002 3:0.2326 4:0.57889998 5:0.1584 6:0.044 7:0.1205 #
-1 1:0.0241 2:0.64289999 3:0.1473 4:0.64289999 5:0.1946 6:0.058600001 7:0.072300002 #
6.1900000000000003907985046680551 1:0.0116 2:0.33329999 3:0.20630001 4:0.5 5:0.1602 6:0.0403 7:0.1446 #
-1 1:0.0027000001 2:0.055599999 3:0.15539999 4:0.22220001 5:0.2561 6:0.025599999 7:0.21690001 #
-1 1:0.0116 2:0.63639998 3:0.28299999 4:0.68180001 5:0.2326 6:0.047600001 7:0.072300002 #
-1 1:0.017000001 2:0.7209 3:0.2096 4:0.6279 5:0.23800001 6:0.044 7:0.060199998 #
-1 1:0.0035999999 2:0.41670001 3:0.2863 4:0.58329999 5:0.1973 6:0.033 7:0.0482 #
-1 1:0.0085000005 2:0.55559999 3:0.2034 4:0.63889998 5:0.14659999 6:0.047600001 7:0.21690001 #
-1 1:0.0080000004 2:0.41670001 3:0.2228 4:0.41670001 5:0.14569999 6:0.036600001 7:0.0964 #
-1 1:0 2:0.53329998 3:0.1534 4:0.73329997 5:0.1611 6:0.0403 7:0.1446 #
-1 1:0.0022 2:0.33329999 3:0.14 4:0.33329999 5:0.1068 6:0.029300001 7:0.13249999 #
-1 1:0.0116 2:0.54549998 3:0.1821 4:0.48480001 5:0.1357 6:0.0403 7:0.1084 #
-1 1:0.0107 2:0.51609999 3:0.21879999 4:0.64520001 5:0.162 6:0.0403 7:0.20479999 #
-1 1:0.0121 2:0.53329998 3:0.26730001 4:0.2667 5:0.2281 6:0.033 7:0.0964 #
-1 1:0.0196 2:0.66670001 3:0.1346 4:0.72219998 5:0.2525 6:0.0623 7:0.31330001 #
6.1900000000000003907985046680551 1:0.0054000001 2:0.36840001 3:0.14399999 4:0.47369999 5:0.1204 6:0.0403 7:0.0964 #
-1 1:0.0040000002 2:0.625 3:0.1661 4:0.4375 5:0.1222 6:0.044 7:0.1084 #
-1 1:0.0049000001 2:0.54549998 3:0.0964 4:0.54549998 5:0.1213 6:0.029300001 7:0.13249999 #
-1 1:0.0076000001 2:0.57889998 3:0.2366 4:0.47369999 5:0.1701 6:0.033 7:0.1084 #
-1 1:0.0134 2:0.625 3:0.3098 4:0.625 5:0.27059999 6:0.0403 7:0.072300002 #
0.80999221268712062737904489040375 1:0.34509999 2:1 3:0.70359999 4:1 5:0.5158 6:0.42860001 7:0 #
-1 1:0.038400002 2:0.5 3:0.2798 4:0.79689997 5:0.34029999 6:0.069600001 7:0.13249999 #
-1 1:0.0066999998 2:0.61290002 3:0.2463 4:0.54839998 5:0.21359999 6:0.033 7:0.1446 #
-1 1:0.0085000005 2:0.5 3:0.1698 4:0.5 5:0.13940001 6:0.029300001 7:0.084299996 #
-1 1:0.0063 2:0.69999999 3:0.1489 4:0.5 5:0.1602 6:0.0403 7:0.084299996 #
-1 1:0.0129 2:0.5 3:0.1927 4:0.36359999 5:0.1294 6:0.029300001 7:0.1928 #
-1 1:0.0085000005 2:0.58329999 3:0.1401 4:0.58329999 5:0.14659999 6:0.0403 7:0.1446 #
-1 1:0 2:0.41670001 3:0.18799999 4:0.33329999 5:0.1575 6:0.025599999 7:0.13249999 #
-1 1:0.017000001 2:0.625 3:0.2307 4:0.70829999 5:0.2471 6:0.058600001 7:0.13249999 #
-1 1:0.00089999998 2:0.375 3:0.21529999 4:0.5625 5:0.19 6:0.036600001 7:0.16869999 #
6.1900000000000003907985046680551 1:0.0071 2:0.60000002 3:0.20919999 4:0.60000002 5:0.1919 6:0.036600001 7:0.0241 #
6.1900000000000003907985046680551 1:0.016100001 2:0.5 3:0.2597 4:0.54170001 5:0.20810001 6:0.047600001 7:0.1205 #
-1 1:0.018300001 2:0.5909 3:0.1596 4:0.63639998 5:0.2036 6:0.0403 7:0.084299996 #
-1 1:0.0254 2:0.54290003 3:0.2061 4:0.54290003 5:0.1891 6:0.0513 7:0.1566 #
-1 1:0.0088999998 2:0.5758 3:0.249 4:0.48480001 5:0.2009 6:0.036600001 7:0.1084 #
-1 1:0.0156 2:0.53850001 3:0.20119999 4:0.53850001 5:0.1864 6:0.0403 7:0.072300002 #
-1 1:0.0044999998 2:0.5 3:0.20819999 4:0.5 5:0.1982 6:0.029300001 7:0.0482 #
-1 1:0.0031000001 2:0.65380001 3:0.17990001 4:0.61540002 5:0.2018 6:0.0403 7:0.241 #
-1 1:0.00089999998 2:0.375 3:0.1927 4:0.25 5:0.1638 6:0.025599999 7:0.0482 #
6.1900000000000003907985046680551 1:0.0112 2:0.4844 3:0.27379999 4:0.60939997 5:0.2018 6:0.044 7:0.1566 #
-1 1:0.00039999999 2:0.57690001 3:0.16590001 4:0.69230002 5:0.1973 6:0.036600001 7:0.1205 #
-1 1:0.018300001 2:0.47369999 3:0.1593 4:0.42109999 5:0.1602 6:0.036600001 7:0.072300002 #
-1 1:0.0138 2:0.44999999 3:0.14049999 4:0.64999998 5:0.18099999 6:0.047600001 7:0.1205 #
-1 1:0.0085000005 2:0.58819997 3:0.25929999 4:0.64709997 5:0.2498 6:0.0403 7:0.084299996 #
-1 1:0.0040000002 2:0.36840001 3:0.1559 4:0.42109999 5:0.14120001 6:0.033 7:0.1807 #
-1 1:0.0121 2:0.6875 3:0.2219 4:0.6875 5:0.2606 6:0.044 7:0.072300002 #
-1 1:0.0093999999 2:0.5 3:0.27959999 4:0.5 5:0.24070001 6:0.033 7:0.072300002 #
-1 1:0.0088999998 2:0.57139999 3:0.1776 4:0.47620001 5:0.1692 6:0.0403 7:0.1205 #
-1 1:0.0080000004 2:0.5625 3:0.1654 4:0.625 5:0.1964 6:0.044 7:0.0482 #
6.1900000000000003907985046680551 1:0.00039999999 2:0.5 3:0.2023 4:0.5 5:0.14839999 6:0.036600001 7:0.1566 #
-1 1:0.00089999998 2:0.41670001 3:0.2067 4:0.375 5:0.1656 6:0.029300001 7:0.1084 #
-1 1:0.0071 2:0.66670001 3:0.1604 4:0.66670001 5:0.2299 6:0.054900002 7:0.0482 #
-1 1:0.0103 2:0.625 3:0.18610001 4:0.58329999 5:0.1991 6:0.0403 7:0.16869999 #
-1 1:0.0063 2:0.5 3:0.1435 4:0.41670001 5:0.14839999 6:0.036600001 7:0.1084 #
-1 1:0.0049000001 2:0.46340001 3:0.19949999 4:0.60979998 5:0.1991 6:0.0403 7:0.20479999 #
6.1900000000000003907985046680551 1:0.0107 2:0.4531 3:0.2773 4:0.59380001 5:0.2018 6:0.044 7:0.1446 #
-1 1:0.00039999999 2:0.72729999 3:0.227 4:0.54549998 5:0.2281 6:0.033 7:0.13249999 #
-1 1:0.0049000001 2:0.60000002 3:0.29030001 4:0.60000002 5:0.27959999 6:0.0403 7:0.0482 #
6.1900000000000003907985046680551 1:0.0116 2:0.44440001 3:0.34169999 4:0.66670001 5:0.2516 6:0.033 7:0.0482 #
-1 1:0.0116 2:0.4524 3:0.17640001 4:0.61900002 5:0.2054 6:0.0513 7:0.20479999 #
-1 1:0.0035999999 2:0.33329999 3:0.1736 4:0.41670001 5:0.1665 6:0.029300001 7:0.072300002 #
-1 1:0.0232 2:0.57139999 3:0.2167 4:0.57139999 5:0.2281 6:0.0513 7:0.1446 #
-1 1:0.0013 2:0.625 3:0.2106 4:0.5 5:0.2199 6:0.036600001 7:0.0482 #
-1 1:0.016100001 2:0.47369999 3:0.20469999 4:0.52630001 5:0.20630001 6:0.0403 7:0.13249999 #
-1 1:0.0076000001 2:0.57139999 3:0.1886 4:0.35710001 5:0.17470001 6:0.036600001 7:0.16869999 #
-1 1:0.035700001 2:0.33329999 3:0.34220001 4:0.69440001 5:0.333 6:0.054900002 7:0.0964 #
-1 1:0.00039999999 2:0.63639998 3:0.2059 4:0.45449999 5:0.23710001 6:0.029300001 7:0.072300002 #
-1 1:0.0018 2:0.60610002 3:0.2254 4:0.303 5:0.1982 6:0.033 7:0.13249999 #
-1 1:0.0049000001 2:0.63639998 3:0.1771 4:0.72729999 5:0.2317 6:0.0513 7:0.1446 #
-1 1:0.0093999999 2:0.60000002 3:0.2034 4:0.60000002 5:0.2271 6:0.044 7:0.072300002 #
-1 1:0.023700001 2:0.61540002 3:0.1691 4:0.61540002 5:0.2163 6:0.044 7:0.084299996 #
-1 1:0.0057999999 2:0.40000001 3:0.2462 4:0.40000001 5:0.2145 6:0.033 7:0.0482 #
-1 1:0.0044999998 2:0.61540002 3:0.1814 4:0.5 5:0.1991 6:0.0403 7:0.2289 #
-1 1:0.022299999 2:0.52630001 3:0.2904 4:0.68419999 5:0.30410001 6:0.047600001 7:0.084299996 #
-1 1:0.0040000002 2:0.55559999 3:0.27329999 4:0.33329999 5:0.2271 6:0.029300001 7:0.072300002 #
-1 1:0.0241 2:0.57889998 3:0.1382 4:0.73680001 5:0.2208 6:0.0513 7:0.1084 #
-1 1:0.0027000001 2:0.44440001 3:0.21070001 4:0.38890001 5:0.191 6:0.029300001 7:0.1446 #
-1 1:0.021 2:0.59380001 3:0.2353 4:0.71880001 5:0.26609999 6:0.054900002 7:0.21690001 #
-1 1:0.0022 2:0.5 3:0.21619999 4:0.5 5:0.2154 6:0.025599999 7:0.084299996 #
-1 1:0.0143 2:0.51429999 3:0.2008 4:0.51429999 5:0.2163 6:0.0513 7:0.1807 #
-1 1:0.0125 2:0.58329999 3:0.17309999 4:0.52780002 5:0.2009 6:0.044 7:0.1566 #
6.1900000000000003907985046680551 1:0.022299999 2:0.66670001 3:0.1953 4:0.5952 5:0.1538 6:0.047600001 7:0.1566 #
-1 1:0.025900001 2:0.59259999 3:0.15440001 4:0.66670001 5:0.2235 6:0.0623 7:0.1928 #
-1 1:0.0125 2:0.33329999 3:0.2581 4:0.33329999 5:0.2308 6:0.033 7:0.0241 #
-1 1:0.0080000004 2:0.72729999 3:0.1921 4:0.66670001 5:0.26609999 6:0.044 7:0.072300002 #
-1 1:0.0013 2:0.5 3:0.0766 4:0.21430001 5:0.092299998 6:0.033 7:0.16869999 #
6.1900000000000003907985046680551 1:0.033 2:0.8125 3:0.2251 4:0.8125 5:0.2163 6:0.058600001 7:0.060199998 #
-1 1:0.0156 2:0.6383 3:0.2253 4:0.78719997 5:0.3204 6:0.047600001 7:0.1566 #
-1 1:0.0143 2:0.47060001 3:0.21600001 4:0.78430003 5:0.29589999 6:0.044 7:0.1084 #
-1 1:0.0080000004 2:0.58329999 3:0.207 4:0.58329999 5:0.24250001 6:0.033 7:0.0482 #
-1 1:0.0031000001 2:0.55559999 3:0.1725 4:0.55559999 5:0.2244 6:0.0403 7:0.0361 #
-1 1:0.0049000001 2:0.70590001 3:0.193 4:0.6275 5:0.2489 6:0.036600001 7:0.21690001 #
-1 1:0.0049000001 2:0.28569999 3:0.1714 4:0.64289999 5:0.2181 6:0.0403 7:0.0964 #
-1 1:0.0013 2:0.60000002 3:0.26069999 4:0.40000001 5:0.2516 6:0.029300001 7:0.060199998 #
-1 1:0.016100001 2:0.71429998 3:0.1779 4:0.64289999 5:0.2561 6:0.0513 7:0.1807 #
-1 1:0.0022 2:0.5 3:0.18619999 4:0.5 5:0.2172 6:0.029300001 7:0.060199998 #
-1 1:0.0044999998 2:0.55559999 3:0.11 4:0.44440001 5:0.17470001 6:0.0403 7:0.060199998 #
-1 1:0.0018 2:0.45449999 3:0.14129999 4:0.45449999 5:0.1864 6:0.025599999 7:0.060199998 #
-1 1:0.021 2:0.57139999 3:0.1167 4:0.57139999 5:0.20720001 6:0.054900002 7:0.1084 #
6.1900000000000003907985046680551 1:0.0152 2:0.5 3:0.31999999 4:0.625 5:0.2244 6:0.0403 7:0.0241 #
-1 1:0.0057999999 2:0.5 3:0.1944 4:0.5 5:0.229 6:0.0403 7:0.084299996 #
6.1900000000000003907985046680551 1:0.0044999998 2:0.58329999 3:0.1568 4:0.5 5:0.1068 6:0.033 7:0.13249999 #
-1 1:0.0076000001 2:0.52780002 3:0.1891 4:0.52780002 5:0.2163 6:0.036600001 7:0.241 #
-1 1:0.0174 2:0.44440001 3:0.28220001 4:0.55559999 5:0.29319999 6:0.047600001 7:0.084299996 #
-1 1:0.0093999999 2:0.375 3:0.095299996 4:0.4375 5:0.15019999 6:0.036600001 7:0.16869999 #
-1 1:0.0228 2:0.54290003 3:0.2005 4:0.85710001 5:0.3222 6:0.0513 7:0.1084 #
6.1900000000000003907985046680551 1:0.0116 2:0.30000001 3:0.2845 4:0.40000001 5:0.1267 6:0.029300001 7:0.060199998 #
6.1900000000000003907985046680551 1:0.0022 2:0.625 3:0.16850001 4:0.75 5:0.1629 6:0.0403 7:0.072300002 #
-1 1:0.0044999998 2:0.46149999 3:0.17389999 4:0.2692 5:0.17290001 6:0.025599999 7:0.0964 #
-1 1:0.0112 2:0.71429998 3:0.1716 4:0.57139999 5:0.2624 6:0.036600001 7:0.084299996 #
-1 1:0.020500001 2:0.30770001 3:0.18080001 4:0.5 5:0.21359999 6:0.033 7:0.084299996 #
-1 1:0.0013 2:0.80849999 3:0.1697 4:0.4894 5:0.229 6:0.033 7:0.2771 #
-1 1:0.017000001 2:0.25 3:0.2482 4:0.4375 5:0.24339999 6:0.029300001 7:0.0361 #
-1 1:0.0088999998 2:0.375 3:0.20100001 4:0.41670001 5:0.2045 6:0.029300001 7:0.13249999 #
-1 1:0.038400002 2:0.5 3:0.1769 4:0.625 5:0.27149999 6:0.0623 7:0.0361 #
6.1900000000000003907985046680551 1:0.0107 2:0.53850001 3:0.234 4:0.34619999 5:0.0986 6:0.033 7:0.13249999 #
-1 1:0.0018 2:0.30000001 3:0.14139999 4:0.30000001 5:0.14929999 6:0.029300001 7:0.1084 #
-1 1:0.00089999998 2:0.72729999 3:0.1211 4:0.68180001 5:0.2552 6:0.0403 7:0.1807 #
-1 1:0.0116 2:0.5 3:0.2764 4:0.4375 5:0.27149999 6:0.036600001 7:0.0964 #
-1 1:0.0156 2:0.35710001 3:0.19230001 4:0.71429998 5:0.28240001 6:0.044 7:0.0482 #
-1 1:0.0049000001 2:0.46149999 3:0.17569999 4:0.46149999 5:0.2262 6:0.033 7:0.060199998 #
-1 1:0.0013 2:0.35710001 3:0.1682 4:0.42860001 5:0.17739999 6:0.036600001 7:0.241 #
-1 1:0.038800001 2:0.3125 3:0.25929999 4:0.5625 5:0.29139999 6:0.080600001 7:0.0482 #
-1 1:0.0063 2:0.36359999 3:0.1761 4:0.27270001 5:0.1937 6:0.025599999 7:0.0482 #
-1 1:0.0143 2:0.60470003 3:0.14399999 4:0.79070002 5:0.29049999 6:0.0513 7:0.1928 #
-1 1:0.0277 2:0.33329999 3:0.1293 4:0.55559999 5:0.219 6:0.047600001 7:0.0361 #
-1 1:0.0040000002 2:0.76740003 3:0.13169999 4:0.30230001 5:0.1964 6:0.029300001 7:0.2771 #
-1 1:0.0116 2:0.63639998 3:0.1936 4:0.45449999 5:0.27599999 6:0.033 7:0.012 #
-1 1:0.0031000001 2:0.4375 3:0.1121 4:0.125 5:0.1158 6:0.025599999 7:0.1928 #
-1 1:0.0103 2:0.46990001 3:0.1183 4:0.759 5:0.2317 6:0.047600001 7:0.37349999 #
-1 1:0.0022 2:0.5625 3:0.25830001 4:0.5 5:0.29139999 6:0.036600001 7:0.13249999 #
-1 1:0.029899999 2:0.625 3:0.147 4:0.4375 5:0.229 6:0.065899998 7:0.13249999 #
-1 1:0.0093999999 2:0.5 3:0.1953 4:0.5 5:0.2579 6:0.033 7:0.084299996 #
-1 1:0.0013 2:0.5 3:0.1727 4:0.36109999 5:0.2027 6:0.029300001 7:0.16869999 #
-1 1:0.0022 2:0.5 3:0.141 4:0.42309999 5:0.1955 6:0.033 7:0.1807 #
-1 1:0.0049000001 2:0.58329999 3:0.23649999 4:0.58329999 5:0.3222 6:0.033 7:0.060199998 #
6.1900000000000003907985046680551 1:0.0107 2:0.54549998 3:0.3154 4:0.27270001 5:0.1122 6:0.025599999 7:0.084299996 #
-1 1:0.016100001 2:0.36109999 3:0.16949999 4:0.61110002 5:0.2308 6:0.058600001 7:0.1807 #
-1 1:0.0429 2:0.7015 3:0.1382 4:0.79100001 5:0.324 6:0.080600001 7:0.1807 #
-1 1:0.0063 2:0.64999998 3:0.14659999 4:0.40000001 5:0.24250001 6:0.0403 7:0.0964 #
-1 1:0.0228 2:0.55559999 3:0.17820001 4:0.44440001 5:0.24339999 6:0.044 7:0.13249999 #
-1 1:0.0116 2:0.50599998 3:0.1191 4:0.67470002 5:0.2217 6:0.044 7:0.36140001 #
-1 1:0.019200001 2:0.38460001 3:0.2122 4:0.53850001 5:0.2814 6:0.036600001 7:0.0361 #
-1 1:0 2:0.54549998 3:0.1751 4:0.54549998 5:0.27959999 6:0.033 7:0.0964 #
-1 1:0.0049000001 2:0.39219999 3:0.1935 4:0.39219999 5:0.2045 6:0.029300001 7:0.1928 #
6.1900000000000003907985046680551 1:0.0272 2:0.66670001 3:0.2067 4:0.62959999 5:0.1538 6:0.058600001 7:0.1084 #
-1 1:0.0040000002 2:0.85110003 3:0.19050001 4:0.51059997 5:0.3213 6:0.033 7:0.21690001 #
-1 1:0.0057999999 2:0.25 3:0.1593 4:0.375 5:0.1928 6:0.033 7:0.0482 #
-1 1:0.029899999 2:0.6875 3:0.1573 4:0.5 5:0.28870001 6:0.069600001 7:0.1205 #
-1 1:0.0076000001 2:0.65380001 3:0.1489 4:0.65380001 5:0.29769999 6:0.036600001 7:0.16869999 #
-1 1:0.0054000001 2:0.60610002 3:0.1627 4:0.39390001 5:0.2326 6:0.036600001 7:0.20479999 #
-1 1:0.0057999999 2:0.54549998 3:0.1288 4:0.54549998 5:0.24429999 6:0.036600001 7:0.1446 #
-1 1:0.020099999 2:0.43900001 3:0.24169999 4:0.63410002 5:0.31490001 6:0.044 7:0.1084 #
-1 1:0.0018 2:0.5 3:0.1041 4:0.5 5:0.2299 6:0.036600001 7:0.072300002 #
-1 1:0.0057999999 2:0.60000002 3:0.1732 4:0.40000001 5:0.2353 6:0.0403 7:0.241 #
6.1900000000000003907985046680551 1:0.0049000001 2:0.5625 3:0.1365 4:0.625 5:0.075999998 6:0.036600001 7:0.1566 #
-1 1:0.00089999998 2:0.57139999 3:0.1973 4:0.54290003 5:0.29859999 6:0.033 7:0.1205 #
-1 1:0.0018 2:0.5 3:0.1894 4:0.28569999 5:0.23980001 6:0.025599999 7:0.060199998 #
-1 1:0.018300001 2:0.34999999 3:0.1557 4:0.69999999 5:0.27239999 6:0.0513 7:0.072300002 #
-1 1:0.0076000001 2:0.5 3:0.1274 4:0.5909 5:0.24429999 6:0.036600001 7:0.1566 #
-1 1:0.018300001 2:0.38890001 3:0.1814 4:0.63889998 5:0.26429999 6:0.058600001 7:0.1446 #
-1 1:0.0116 2:0.66670001 3:0.19840001 4:0.66670001 5:0.37290001 6:0.044 7:0.0482 #
-1 1:0.0066999998 2:0.36109999 3:0.19400001 4:0.5 5:0.2199 6:0.033 7:0.2289 #
-1 1:0.0295 2:0.61540002 3:0.16779999 4:0.61540002 5:0.3231 6:0.047600001 7:0.0964 #
-1 1:0.0254 2:0.5625 3:0.2342 4:0.73439997 5:0.3475 6:0.058600001 7:0.2289 #
-1 1:0.00089999998 2:0.4375 3:0.14309999 4:0.5 5:0.24250001 6:0.036600001 7:0.084299996 #
-1 1:0.0054000001 2:0.5 3:0.1212 4:0.375 5:0.20720001 6:0.033 7:0.13249999 #
6.1900000000000003907985046680551 1:0.0022 2:0.75 3:0.22499999 4:0.66670001 5:0.1891 6:0.036600001 7:0.060199998 #
-1 1:0.0187 2:0.69230002 3:0.15279999 4:0.69230002 5:0.3484 6:0.044 7:0.1205 #
-1 1:0 2:0.5 3:0.2212 4:0.25 5:0.24250001 6:0.025599999 7:0.13249999 #
-1 1:0.0018 2:0.60000002 3:0.111 4:0.44999999 5:0.24070001 6:0.0403 7:0.1446 #
-1 1:0.0040000002 2:0.6857 3:0.13850001 4:0.65710002 5:0.28780001 6:0.036600001 7:0.31330001 #
-1 1:0.0022 2:0.27779999 3:0.2357 4:0.33329999 5:0.219 6:0.029300001 7:0.13249999 #
6.1900000000000003907985046680551 1:0.0634 2:0.6286 3:0.19850001 4:0.77139997 5:0.133 6:0.084200002 7:0.1928 #
-1 1:0.0066999998 2:0.70370001 3:0.1653 4:0.4815 5:0.30500001 6:0.044 7:0.1566 #
6.1900000000000003907985046680551 1:0.0138 2:0.625 3:0.16249999 4:0.3125 5:0.027100001 6:0.022 7:0.1084 #
-1 1:0.016100001 2:0.62650001 3:0.1494 4:0.44580001 5:0.2633 6:0.033 7:0.1807 #
-1 1:0.0066999998 2:0.7647 3:0.18619999 4:0.47060001 5:0.29679999 6:0.033 7:0.28920001 #
-1 1:0.0085000005 2:0.55000001 3:0.1891 4:0.75 5:0.37830001 6:0.058600001 7:0.0482 #
-1 1:0.0116 2:0.38100001 3:0.1014 4:0.38100001 5:0.15109999 6:0.036600001 7:0.2289 #
-1 1:0.0138 2:0.80000001 3:0.1926 4:0.6857 5:0.40450001 6:0.0403 7:0.13249999 #
-1 1:0.0040000002 2:0.51520002 3:0.1496 4:0.72729999 5:0.27869999 6:0.054900002 7:0.2771 #
-1 1:0.0031000001 2:0.60000002 3:0.1655 4:0.42860001 5:0.2588 6:0.025599999 7:0.2289 #
-1 1:0.0035999999 2:0.44440001 3:0.2274 4:0.66670001 5:0.34299999 6:0.025599999 7:0.1084 #
-1 1:0 2:0.69230002 3:0.1336 4:0.2308 5:0.2308 6:0.025599999 7:0.20479999 #
-1 1:0 2:0.47220001 3:0.1329 4:0.44440001 5:0.1837 6:0.033 7:0.32530001 #
-1 1:0.0143 2:0.375 3:0.1235 4:0.375 5:0.2018 6:0.044 7:0.0964 #
-1 1:0.0040000002 2:0.68290001 3:0.17219999 4:0.58539999 5:0.31490001 6:0.0403 7:0.2651 #
-1 1:0.0054000001 2:0.44440001 3:0.1109 4:0.44440001 5:0.2271 6:0.033 7:0.1084 #
-1 1:0.022299999 2:0.35710001 3:0.16060001 4:0.35710001 5:0.2244 6:0.036600001 7:0.060199998 #
6.1900000000000003907985046680551 1:0.017000001 2:0.5 3:0.3143 4:0.5 5:0.1258 6:0.044 7:0.072300002 #
-1 1:0.00039999999 2:0.5 3:0.21699999 4:0.30000001 5:0.27419999 6:0.029300001 7:0.084299996 #
-1 1:0.0018 2:0.53850001 3:0.086999997 4:0.73079997 5:0.27149999 6:0.0403 7:0.2651 #
-1 1:0.00039999999 2:0.4375 3:0.1532 4:0.5625 5:0.27239999 6:0.036600001 7:0.13249999 #
-1 1:0 2:0.41670001 3:0.15700001 4:0.41670001 5:0.2362 6:0.025599999 7:0.1205 #
-1 1:0.0057999999 2:0.41670001 3:0.1752 4:0.41670001 5:0.2534 6:0.033 7:0.0964 #
-1 1:0.021 2:0.60939997 3:0.2386 4:0.8125 5:0.4136 6:0.069600001 7:0.20479999 #
-1 1:0.0044999998 2:0.4091 3:0.1917 4:0.45449999 5:0.23980001 6:0.033 7:0.20479999 #
6.1900000000000003907985046680551 1:0.017000001 2:0.38460001 3:0.30700001 4:0.65380001 5:0.1095 6:0.044 7:0.0964 #
-1 1:0.0040000002 2:0.42860001 3:0.17730001 4:0.4524 5:0.24339999 6:0.036600001 7:0.1928 #
6.1900000000000003907985046680551 1:0.0121 2:0.53189999 3:0.31529999 4:0.55320001 5:0.14210001 6:0.036600001 7:0.072300002 #
6.1900000000000003907985046680551 1:0.0196 2:0.75 3:0.31200001 4:0.6875 5:0.23980001 6:0.044 7:0.060199998 #
-1 1:0.0088999998 2:0.30000001 3:0.2304 4:0.40000001 5:0.2597 6:0.029300001 7:0.072300002 #
-1 1:0.024599999 2:0.64179999 3:0.13079999 4:0.67159998 5:0.3258 6:0.054900002 7:0.2289 #
-1 1:0.022299999 2:0.44780001 3:0.18080001 4:0.68660003 5:0.3348 6:0.058600001 7:0.1084 #
-1 1:0.024599999 2:0.51849997 3:0.178 4:0.25929999 5:0.24519999 6:0.0403 7:0.1446 #
-1 1:0.0093999999 2:0.69770002 3:0.092100002 4:0.74419999 5:0.28420001 6:0.047600001 7:0.4217 #
6.1900000000000003907985046680551 1:0 2:0.84619999 3:0.189 4:0.38460001 5:0.080499999 6:0.033 7:0.20479999 #
-1 1:0.0063 2:0.34290001 3:0.23029999 4:0.3714 5:0.2543 6:0.0403 7:0.1205 #
-1 1:0.00089999998 2:0.5 3:0.1891 4:0.30770001 5:0.24160001 6:0.033 7:0.1928 #
-1 1:0.0143 2:0.34150001 3:0.24869999 4:0.70730001 5:0.36829999 6:0.047600001 7:0.072300002 #
-1 1:0.00089999998 2:0.82980001 3:0.1684 4:0.3617 5:0.31580001 6:0.029300001 7:0.28920001 #
-1 1:0.0027000001 2:0.45100001 3:0.1911 4:0.5686 5:0.27419999 6:0.036600001 7:0.25299999 #
-1 1:0.0057999999 2:0.68669999 3:0.1293 4:0.2651 5:0.2262 6:0.025599999 7:0.28920001 #
-1 1:0.0031000001 2:0.63410002 3:0.19220001 4:0.7317 5:0.37830001 6:0.047600001 7:0.2289 #
-1 1:0 2:0.33329999 3:0.1945 4:0.16670001 5:0.1882 6:0.022 7:0.1084 #
-1 1:0.0228 2:0.57810003 3:0.20290001 4:0.70310003 5:0.34119999 6:0.054900002 7:0.3012 #
-1 1:0.0063 2:0.33329999 3:0.2807 4:0.27779999 5:0.26789999 6:0.025599999 7:0.0964 #
-1 1:0.0035999999 2:0.71880001 3:0.2077 4:0.5 5:0.34299999 6:0.036600001 7:0.2771 #
-1 1:0.0308 2:0.58139998 3:0.1576 4:0.69770002 5:0.36379999 6:0.047600001 7:0.1566 #
-1 1:0.0054000001 2:0.4314 3:0.18269999 4:0.58819997 5:0.2516 6:0.036600001 7:0.31330001 #
-1 1:0.0107 2:0.69999999 3:0.29440001 4:0.69999999 5:0.52219999 6:0.044 7:0.0361 #
-1 1:0.0129 2:0.5 3:0.18709999 4:0.25 5:0.26879999 6:0.044 7:0.0964 #
-1 1:0.0022 2:0.61110002 3:0.1393 4:0.61110002 5:0.27869999 6:0.044 7:0.36140001 #
-1 1:0.0022 2:0.5 3:0.1099 4:0.5625 5:0.27239999 6:0.047600001 7:0.1807 #
-1 1:0.0027000001 2:0.70310003 3:0.2041 4:0.4844 5:0.34209999 6:0.036600001 7:0.28920001 #
6.1900000000000003907985046680551 1:0.0138 2:0.54900002 3:0.26899999 4:0.84310001 5:0.1566 6:0.0513 7:0.084299996 #
-1 1:0.0152 2:0.48480001 3:0.2033 4:0.54549998 5:0.36289999 6:0.044 7:0.060199998 #
6.1900000000000003907985046680551 1:0.050000001 2:0.71429998 3:0.29120001 4:0.82859999 5:0.23710001 6:0.095200002 7:0.060199998 #
-1 1:0.0116 2:0.56629997 3:0.115 4:0.78310001 5:0.27599999 6:0.0513 7:0.4337 #
-1 1:0.0116 2:0.44190001 3:0.1648 4:0.55809999 5:0.31580001 6:0.0403 7:0.0964 #
-1 1:0.0339 2:0.62690002 3:0.1086 4:0.71640003 5:0.31760001 6:0.065899998 7:0.32530001 #
-1 1:0.0066999998 2:0.42860001 3:0.1609 4:0.6286 5:0.27599999 6:0.036600001 7:0.241 #
6.1900000000000003907985046680551 1:0.0035999999 2:0.72729999 3:0.34299999 4:0.63639998 5:0.21089999 6:0.036600001 7:0.060199998 #
-1 1:0.0107 2:0.66670001 3:0.23450001 4:0.66670001 5:0.4851 6:0.033 7:0.072300002 #
-1 1:0.00039999999 2:0.52939999 3:0.1813 4:0.60780001 5:0.28960001 6:0.036600001 7:0.32530001 #
-1 1:0.0143 2:0.31709999 3:0.2473 4:0.68290001 5:0.35839999 6:0.047600001 7:0.0964 #
-1 1:0.0085000005 2:0.40000001 3:0.088799998 4:0.60000002 5:0.2299 6:0.047600001 7:0.21690001 #
-1 1:0.0219 2:0.66670001 3:0.1235 4:0.69700003 5:0.35929999 6:0.047600001 7:0.28920001 #
-1 1:0.0018 2:0.57139999 3:0.1295 4:0.35710001 5:0.27419999 6:0.029300001 7:0.1446 #
-1 1:0.0152 2:0.5 3:0.1718 4:0.61540002 5:0.36829999 6:0.036600001 7:0.1084 #
-1 1:0.0022 2:0.70730001 3:0.1621 4:0.43900001 5:0.31580001 6:0.036600001 7:0.3012 #
-1 1:0.0022 2:0.54839998 3:0.17129999 4:0.58060002 5:0.30230001 6:0.036600001 7:0.3012 #
-1 1:0.046 2:0.67159998 3:0.088299997 4:0.7313 5:0.29499999 6:0.069600001 7:0.4578 #
-1 1:0.0018 2:0.375 3:0.19069999 4:0.375 5:0.2624 6:0.029300001 7:0.084299996 #
-1 1:0.0085000005 2:0.48570001 3:0.1743 4:0.48570001 5:0.27779999 6:0.0513 7:0.2289 #
6.1900000000000003907985046680551 1:0.0098000001 2:0.60000002 3:0.39399999 4:0.60000002 5:0.1928 6:0.0403 7:0.012 #
-1 1:0.0044999998 2:0.60000002 3:0.2207 4:0.66670001 5:0.4914 6:0.0403 7:0.0482 #
-1 1:0.0085000005 2:0.5122 3:0.2094 4:0.36590001 5:0.29949999 6:0.036600001 7:0.16869999 #
-1 1:0.0138 2:0.4242 3:0.17399999 4:0.51520002 5:0.28960001 6:0.044 7:0.16869999 #
-1 1:0.0063 2:0.54759997 3:0.12729999 4:0.47620001 5:0.1982 6:0.036600001 7:0.4217 #
-1 1:0.0035999999 2:0.3725 3:0.2154 4:0.54900002 5:0.324 6:0.036600001 7:0.1205 #
-1 1:0 2:0.60979998 3:0.1716 4:0.65850002 5:0.37830001 6:0.044 7:0.2771 #
-1 1:0.0027000001 2:0.45159999 3:0.2243 4:0.41940001 5:0.29949999 6:0.029300001 7:0.1807 #
-1 1:0.0071 2:0.44679999 3:0.21529999 4:0.53189999 5:0.33570001 6:0.036600001 7:0.1807 #
6.1900000000000003907985046680551 1:0.033 2:0.61110002 3:0.28569999 4:0.75 5:0.1548 6:0.0623 7:0.072300002 #
-1 1:0.017899999 2:0.61189997 3:0.1062 4:0.64179999 5:0.3213 6:0.0513 7:0.3373 #
-1 1:0 2:0.2353 3:0.2351 4:0.47060001 5:0.2597 6:0.033 7:0.1084 #
-1 1:0.022299999 2:0.5625 3:0.1392 4:0.375 5:0.30680001 6:0.0623 7:0.1566 #
-1 1:0.0080000004 2:0.6286 3:0.152 4:0.57139999 5:0.36199999 6:0.033 7:0.2771 #
-1 1:0.0071 2:0.38890001 3:0.2507 4:0.66670001 5:0.3973 6:0.0513 7:0.1446 #
-1 1:0 2:0.6512 3:0.1401 4:0.2791 5:0.29499999 6:0.029300001 7:0.21690001 #
-1 1:0.0165 2:0.19230001 3:0.1538 4:0.53850001 5:0.21269999 6:0.033 7:0.13249999 #
-1 1:0.0031000001 2:0.64520001 3:0.2079 4:0.51609999 5:0.4145 6:0.033 7:0.241 #
-1 1:0.0241 2:0.38100001 3:0.17110001 4:0.78570002 5:0.37470001 6:0.054900002 7:0.21690001 #
-1 1:0.0027000001 2:0.65960002 3:0.1219 4:0.74470001 5:0.34299999 6:0.044 7:0.51810002 #
